{"learner":{"attributes":{"scikit_learn":"{\"_estimator_type\": \"classifier\"}"},"feature_names":[],"feature_types":[],"gradient_booster":{"model":{"gbtree_model_param":{"num_parallel_tree":"1","num_trees":"100"},"iteration_indptr":[0,1,2,3,4,5,6,7,8,9,10,11,12,13,14,15,16,17,18,19,20,21,22,23,24,25,26,27,28,29,30,31,32,33,34,35,36,37,38,39,40,41,42,43,44,45,46,47,48,49,50,51,52,53,54,55,56,57,58,59,60,61,62,63,64,65,66,67,68,69,70,71,72,73,74,75,76,77,78,79,80,81,82,83,84,85,86,87,88,89,90,91,92,93,94,95,96,97,98,99,100],"tree_info":[0,0,0,0,0,0,0,0,0,0,0,0,0,0,0,0,0,0,0,0,0,0,0,0,0,0,0,0,0,0,0,0,0,0,0,0,0,0,0,0,0,0,0,0,0,0,0,0,0,0,0,0,0,0,0,0,0,0,0,0,0,0,0,0,0,0,0,0,0,0,0,0,0,0,0,0,0,0,0,0,0,0,0,0,0,0,0,0,0,0,0,0,0,0,0,0,0,0,0,0],"trees":[{"base_weights":[-4.9319684E-8,8.1835777E-1,-1.8692359E0,-1.7948308E0,1.5966619E0,-6.0096735E-1,5.813294E-1,-1.8850271E-1,-5.98408E-1,2.0430288E-1,1.7302612E0,1.4234921E0,-5.7101864E-1,1.7069567E0,-8.700697E-1,1.8082588E0,4.7933784E-1,-4.2969978E-1,1.719075E0,-2.0087673E-1,1.7631773E0,2.247517E-1,-1.8051628E0,1.821331E0,-4.6287534E-1,-1.0754197E0,1.8595928E0,5.439388E-1,-9.4602985E-4,5.614505E-1,2.6526678E-1,-2.01518E-1,4.5056742E-1,-5.8498544E-1,-3.9808258E-1,5.484609E-1,-3.7618452E-1,2.1674982E-1,-4.7739848E-1,5.8036846E-1,-1.0511447E-3],"categories":[],"categories_nodes":[],"categories_segments":[],"categories_sizes":[],"default_left":[0,0,0,0,0,0,0,0,0,0,0,0,0,0,0,0,0,0,0,0,0,0,0,0,0,0,0,0,0,0,0,0,0,0,0,0,0,0,0,0,0],"id":0,"left_children":[1,3,5,7,9,-1,-1,11,-1,13,15,17,-1,19,21,23,25,-1,27,-1,29,31,33,35,-1,37,39,-1,-1,-1,-1,-1,-1,-1,-1,-1,-1,-1,-1,-1,-1],"loss_changes":[5.096555E3,4.7157847E3,5.2136914E2,1.7049866E2,3.3187207E2,0E0,0E0,1.685722E2,0E0,2.55753E2,1.581211E2,2.9052288E1,0E0,9.998856E0,9.510285E1,6.998828E1,2.101567E2,0E0,4.7031937E0,0E0,4.5101166E0,5.0812893E1,8.7454224E-1,3.4583984E1,0E0,4.4049187E1,7.2348633E0,0E0,0E0,0E0,0E0,0E0,0E0,0E0,0E0,0E0,0E0,0E0,0E0,0E0,0E0],"parents":[2147483647,0,0,1,1,2,2,3,3,4,4,7,7,9,9,10,10,11,11,13,13,14,14,15,15,16,16,18,18,20,20,21,21,22,22,23,23,25,25,26,26],"right_children":[2,4,6,8,10,-1,-1,12,-1,14,16,18,-1,20,22,24,26,-1,28,-1,30,32,34,36,-1,38,40,-1,-1,-1,-1,-1,-1,-1,-1,-1,-1,-1,-1,-1,-1],"split_conditions":[1.76E2,1.585041E3,1.051416E6,1.5669803E3,9.984E3,-6.0096735E-1,5.813294E-1,3E0,-5.98408E-1,3E0,1.47338E5,1.23E2,-5.7101864E-1,1.0365098E0,1E0,2E1,1.5643952E5,-4.2969978E-1,7.134403E0,-2.0087673E-1,2E0,4E0,1.2152911E3,1.23E2,-4.6287534E-1,5E0,3E0,5.439388E-1,-9.4602985E-4,5.614505E-1,2.6526678E-1,-2.01518E-1,4.5056742E-1,-5.8498544E-1,-3.9808258E-1,5.484609E-1,-3.7618452E-1,2.1674982E-1,-4.7739848E-1,5.8036846E-1,-1.0511447E-3],"split_indices":[4,3,2,2,3,0,0,7,0,7,5,3,0,8,9,7,3,0,8,0,7,0,5,1,0,11,0,0,0,0,0,0,0,0,0,0,0,0,0,0,0],"split_type":[0,0,0,0,0,0,0,0,0,0,0,0,0,0,0,0,0,0,0,0,0,0,0,0,0,0,0,0,0,0,0,0,0,0,0,0,0,0,0,0,0],"sum_hessian":[3.329727E3,2.316234E3,1.013493E3,5.3124634E2,1.7849877E3,9.794932E2,3.3999763E1,5.899959E1,4.7224673E2,1.5649892E2,1.6284888E3,3.0499788E1,2.8499804E1,6.499955E1,9.149937E1,1.5324894E3,9.599934E1,2.4999828E0,2.7999805E1,1.2499914E0,6.3749557E1,4.2499706E1,4.899966E1,1.5269895E3,5.499962E0,4.5249687E1,5.074965E1,2.6499817E1,1.4999896E0,5.5749615E1,7.9999447E0,2.5249825E1,1.724988E1,3.5249756E1,1.3749905E1,1.5239895E3,2.9999793E0,9.999931E0,3.5249756E1,4.8749664E1,1.9999862E0],"tree_param":{"num_deleted":"0","num_feature":"12","num_nodes":"41","size_leaf_vector":"1"}},{"base_weights":[-1.1676172E-3,6.2394065E-1,-1.4451056E0,-1.185062E0,1.2830988E0,-4.6483314E-1,4.5238394E-1,5.1802343E-1,-1.4580556E0,1.3470409E0,2.7484462E-1,-4.461782E-1,1.2522427E0,-1.534667E0,-8.851341E-1,1.3583555E0,-1.2547802E0,-8.804985E-1,1.4379526E0,1.4736397E0,-9.252316E-1,-1.0420771E0,-4.6469778E-1,-1.3058164E0,6.288788E-1,6.1567396E-1,1.3918129E0,-1.2514544E-1,-4.0621763E-1,-1.3814974E0,4.5355043E-1,1.5009314E0,-8.4090483E-4,4.5830604E-1,-1.0096779E-2,-4.2224088E-1,7.613675E-2,-4.3632385E-1,3.2000396E-1,-5.7855222E-2,-4.7778955E-1,4.6004656E-1,-4.69745E-1,3.60443E-1,-1.6317734E-1,4.1923556E-1,-3.000515E-1,8.583493E-2,-4.924628E-1,3.7878054E-1,-3.3741078E-1,4.5656762E-1,1.10049255E-1],"categories":[],"categories_nodes":[],"categories_segments":[],"categories_sizes":[],"default_left":[0,0,0,0,0,0,0,0,0,0,0,0,0,0,0,0,0,0,0,0,0,0,0,0,0,0,0,0,0,0,0,0,0,0,0,0,0,0,0,0,0,0,0,0,0,0,0,0,0,0,0,0,0],"id":1,"left_children":[1,3,5,7,9,-1,-1,11,13,15,17,-1,19,21,23,25,27,29,31,33,35,37,-1,39,41,43,45,-1,-1,47,49,51,-1,-1,-1,-1,-1,-1,-1,-1,-1,-1,-1,-1,-1,-1,-1,-1,-1,-1,-1,-1,-1],"loss_changes":[2.777634E3,2.5623389E3,2.888009E2,2.676552E2,1.0113867E2,0E0,0E0,1.197128E2,2.036914E1,4.5284424E1,1.291346E2,0E0,2.9871277E1,1.4573975E0,3.9513645E1,3.5780273E1,1.1411667E-2,3.2946423E1,4.341255E0,4.4555817E0,3.8095107E0,1.4904108E1,0E0,1.4972153E1,2.9966408E1,4.5047146E1,2.0416748E1,0E0,0E0,1.582193E1,1.9239216E1,5.3041077E-1,0E0,0E0,0E0,0E0,0E0,0E0,0E0,0E0,0E0,0E0,0E0,0E0,0E0,0E0,0E0,0E0,0E0,0E0,0E0,0E0,0E0],"parents":[2147483647,0,0,1,1,2,2,3,3,4,4,7,7,8,8,9,9,10,10,12,12,13,13,14,14,15,15,16,16,17,17,18,18,19,19,20,20,21,21,23,23,24,24,25,25,26,26,29,29,30,30,31,31],"right_children":[2,4,6,8,10,-1,-1,12,14,16,18,-1,20,22,24,26,28,30,32,34,36,38,-1,40,42,44,46,-1,-1,48,50,52,-1,-1,-1,-1,-1,-1,-1,-1,-1,-1,-1,-1,-1,-1,-1,-1,-1,-1,-1,-1,-1],"split_conditions":[1.76E2,5.582E3,1.051416E6,2E0,1.47338E5,-4.6483314E-1,4.5238394E-1,1.23E2,1.283E3,2E1,1.5643952E5,-4.461782E-1,5.63737E3,8.859E2,4E0,1.0119909E4,1.505659E4,8.033302E6,3E0,2.4E1,9.50271E4,4E0,-4.6469778E-1,2E0,5.63737E3,1E0,1.23E2,-1.2514544E-1,-4.0621763E-1,3.804024E4,1E1,1E2,-8.4090483E-4,4.5830604E-1,-1.0096779E-2,-4.2224088E-1,7.613675E-2,-4.3632385E-1,3.2000396E-1,-5.7855222E-2,-4.7778955E-1,4.6004656E-1,-4.69745E-1,3.60443E-1,-1.6317734E-1,4.1923556E-1,-3.000515E-1,8.583493E-2,-4.924628E-1,3.7878054E-1,-3.3741078E-1,4.5656762E-1,1.10049255E-1],"split_indices":[4,3,2,7,5,0,0,3,3,7,3,0,2,2,0,3,2,6,0,11,2,0,0,0,2,9,1,0,0,2,11,1,0,0,0,0,0,0,0,0,0,0,0,0,0,0,0,0,0,0,0,0,0],"split_type":[0,0,0,0,0,0,0,0,0,0,0,0,0,0,0,0,0,0,0,0,0,0,0,0,0,0,0,0,0,0,0,0,0,0,0,0,0,0,0,0,0,0,0,0,0,0,0,0,0,0,0,0,0],"sum_hessian":[3.075311E3,2.1465825E3,9.287286E2,5.73063E2,1.5735195E3,8.9749335E2,3.12352E1,7.904411E1,4.9401886E2,1.4793644E3,9.4155174E1,2.0909872E1,5.813424E1,4.342694E2,5.9749462E1,1.4734347E3,5.929656E0,4.7357155E1,4.679802E1,5.3062305E1,5.071934E0,1.4356496E1,4.199129E2,4.6865086E1,1.28843775E1,6.435244E1,1.4090823E3,1.1795381E0,4.7501183E0,3.4402E1,1.2955154E1,4.479803E1,1.9999912E0,5.121246E1,1.8498468E0,3.462114E0,1.6098202E0,1.2267976E1,2.0885198E0,9.945337E0,3.6919746E1,9.3370905E0,3.5472872E0,4.273007E1,2.1622368E1,1.4061832E3,2.8991296E0,4.62738E0,2.9774622E1,8.696906E0,4.258248E0,4.364936E1,1.1486675E0],"tree_param":{"num_deleted":"0","num_feature":"12","num_nodes":"53","size_leaf_vector":"1"}},{"base_weights":[-4.2647202E-3,5.2135855E-1,-1.2531558E0,-1.138646E0,1.032133E0,-4.0334135E-1,3.912437E-1,1.2530743E-1,-1.3042821E0,1.1207024E0,2.7935338E-1,1.1169281E0,-1.297156E0,-9.868013E-1,-4.0435225E-1,-1.0769163E0,1.1385325E0,8.291546E-1,-1.5799409E0,1.2452523E0,-3.113828E-1,-4.0012792E-1,-1.1824603E-1,-1.2230543E0,1.025615E0,4.0629798E-1,-2.3893905E0,3.834824E-1,1.1874403E0,-1.2608123E0,1.078015E0,-2.1871905E0,6.084558E-1,-1.021524E-1,3.945437E-1,2.2837475E-1,-4.004551E-1,9.022832E-2,3.4561345E-1,-2.7623796E-1,3.190936E-1,-8.323731E-1,-2.5842425E-1,3.6039495E-1,-1.0707795E-1,3.5971907E-1,-1.5396312E-1,-4.3498972E-1,7.755924E-2,-6.6946876E-1,3.517326E-1,-8.1292045E-1,-4.2433706E-1,3.8585103E-1,-2.649574E-1],"categories":[],"categories_nodes":[],"categories_segments":[],"categories_sizes":[],"default_left":[0,0,0,0,0,0,0,0,0,0,0,0,0,0,0,0,0,0,0,0,0,0,0,0,0,0,0,0,0,0,0,0,0,0,0,0,0,0,0,0,0,0,0,0,0,0,0,0,0,0,0,0,0,0,0],"id":2,"left_children":[1,3,5,7,9,-1,-1,11,13,15,17,19,21,23,-1,25,27,29,31,33,-1,-1,-1,35,37,39,41,43,45,47,49,51,53,-1,-1,-1,-1,-1,-1,-1,-1,-1,-1,-1,-1,-1,-1,-1,-1,-1,-1,-1,-1,-1,-1],"loss_changes":[1.7192911E3,1.5640891E3,1.829165E2,9.1065125E1,9.370325E1,0E0,0E0,7.3696144E1,3.9799805E0,5.0650146E1,1.544163E2,9.786606E0,1.8499756E-1,2.5054573E1,0E0,2.1732618E1,4.5765747E1,6.1821594E1,4.721206E1,3.7114182E0,0E0,0E0,0E0,1.1055618E1,1.8534279E-1,6.092832E0,1.0257034E0,4.7430405E1,2.3842773E1,4.062145E0,3.524868E1,7.167938E0,9.508057E0,0E0,0E0,0E0,0E0,0E0,0E0,0E0,0E0,0E0,0E0,0E0,0E0,0E0,0E0,0E0,0E0,0E0,0E0,0E0,0E0,0E0,0E0],"parents":[2147483647,0,0,1,1,2,2,3,3,4,4,7,7,8,8,9,9,10,10,11,11,12,12,13,13,15,15,16,16,17,17,18,18,19,19,23,23,24,24,25,25,26,26,27,27,28,28,29,29,30,30,31,31,32,32],"right_children":[2,4,6,8,10,-1,-1,12,14,16,18,20,22,24,-1,26,28,30,32,34,-1,-1,-1,36,38,40,42,44,46,48,50,52,54,-1,-1,-1,-1,-1,-1,-1,-1,-1,-1,-1,-1,-1,-1,-1,-1,-1,-1,-1,-1,-1,-1],"split_conditions":[1.76E2,2.5895476E3,1.051416E6,2E0,1.5E1,-4.0334135E-1,3.912437E-1,2.59374E3,2.59374E3,3E0,3.333286E4,1E0,8.62388E0,4E0,-4.0435225E-1,1.458416E4,8.627E3,1.0145E4,6.963509E6,4.9961686E0,-3.113828E-1,-4.0012792E-1,-1.1824603E-1,2E0,2.6E2,4E0,1.0038251E5,3E0,2.5E1,4E0,2.4993536E0,1.4339766E5,6E0,-1.021524E-1,3.945437E-1,2.2837475E-1,-4.004551E-1,9.022832E-2,3.4561345E-1,-2.7623796E-1,3.190936E-1,-8.323731E-1,-2.5842425E-1,3.6039495E-1,-1.0707795E-1,3.5971907E-1,-1.5396312E-1,-4.3498972E-1,7.755924E-2,-6.6946876E-1,3.517326E-1,-8.1292045E-1,-4.2433706E-1,3.8585103E-1,-2.649574E-1],"split_indices":[4,3,2,7,7,0,0,2,2,1,2,9,8,0,0,2,3,3,5,8,0,0,0,0,3,0,5,7,11,0,8,5,11,0,0,0,0,0,0,0,0,0,0,0,0,0,0,0,0,0,0,0,0,0,0],"split_type":[0,0,0,0,0,0,0,0,0,0,0,0,0,0,0,0,0,0,0,0,0,0,0,0,0,0,0,0,0,0,0,0,0,0,0,0,0,0,0,0,0,0,0,0,0,0,0,0,0,0,0,0,0,0,0],"sum_hessian":[2.6170938E3,1.8423027E3,7.74791E2,4.331962E2,1.4091064E3,7.485368E2,2.6254211E1,5.0219467E1,3.8297675E2,1.2603315E3,1.4877495E2,2.9717642E1,2.0501825E1,4.905936E1,3.339174E2,9.665239E0,1.2506663E3,1.152493E2,3.3525658E1,2.8445797E1,1.2718451E0,1.9244701E1,1.2571238E0,4.425605E1,4.8033104E0,4.861612E0,4.803627E0,7.662043E1,1.1740459E3,1.1830301E1,1.0341899E2,2.624389E1,7.281765E0,1.0373905E0,2.7408405E1,2.0505667E0,4.2205482E1,1.2151911E0,3.5881195E0,1.4776583E0,3.3839538E0,3.1848977E0,1.6187295E0,3.611089E1,4.050954E1,1.1663691E3,7.676748E0,1.0561136E1,1.269165E0,2.2410083E0,1.01177986E2,1.4161087E1,1.2082805E1,5.10164E0,2.180125E0],"tree_param":{"num_deleted":"0","num_feature":"12","num_nodes":"55","size_leaf_vector":"1"}},{"base_weights":[-7.6908264E-3,4.495065E-1,-1.1449184E0,-1.1138545E0,8.620699E-1,-3.6878377E-1,3.5502136E-1,1.362927E-1,-1.2057629E0,7.58422E-2,9.533451E-1,8.6352557E-1,-3.318961E-1,-5.5381066E-1,-3.6816153E-1,6.802133E-1,-8.3664674E-1,1.0670867E0,4.909E-1,-2.1521291E-1,1.0409821E0,2.3063914E-1,-3.114271E-1,9.895643E-1,-5.06616E-1,7.8210425E-1,-1.170421E0,1.0954424E0,3.4982997E-1,8.769293E-1,-2.3639445E0,3.4731376E-1,2.5232201E-2,-2.2924115E-1,3.3387753E-1,1.0479172E-1,-4.0800765E-1,3.68549E-1,-3.343578E-1,-2.2761331E-1,-3.9505997E-1,2.6562944E-1,3.4875482E-1,3.0636197E-1,-8.2082987E-1,2.8351662E-1,-2.690527E-1,-9.0720874E-1,-4.4001615E-1],"categories":[],"categories_nodes":[],"categories_segments":[],"categories_sizes":[],"default_left":[0,0,0,0,0,0,0,0,0,0,0,0,0,0,0,0,0,0,0,0,0,0,0,0,0,0,0,0,0,0,0,0,0,0,0,0,0,0,0,0,0,0,0,0,0,0,0,0,0],"id":3,"left_children":[1,3,5,7,9,-1,-1,11,13,15,17,19,-1,21,-1,23,25,27,29,-1,31,-1,-1,33,35,37,39,41,43,45,47,-1,-1,-1,-1,-1,-1,-1,-1,-1,-1,-1,-1,-1,-1,-1,-1,-1,-1],"loss_changes":[1.1241748E3,9.956312E2,1.2323169E2,3.7211426E1,8.7530945E1,0E0,0E0,2.1721327E1,3.5204468E0,7.11935E1,5.7002075E1,4.971052E0,0E0,8.093115E0,0E0,2.8988132E1,2.8726276E1,1.7451843E1,2.420408E2,0E0,1.4603357E0,0E0,0E0,1.4238674E1,1.2676435E1,9.326379E0,1.5979881E0,1.0846741E1,7.493162E1,2.4113983E1,1.10854645E1,0E0,0E0,0E0,0E0,0E0,0E0,0E0,0E0,0E0,0E0,0E0,0E0,0E0,0E0,0E0,0E0,0E0,0E0],"parents":[2147483647,0,0,1,1,2,2,3,3,4,4,7,7,8,8,9,9,10,10,11,11,13,13,15,15,16,16,17,17,18,18,20,20,23,23,24,24,25,25,26,26,27,27,28,28,29,29,30,30],"right_children":[2,4,6,8,10,-1,-1,12,14,16,18,20,-1,22,-1,24,26,28,30,-1,32,-1,-1,34,36,38,40,42,44,46,48,-1,-1,-1,-1,-1,-1,-1,-1,-1,-1,-1,-1,-1,-1,-1,-1,-1,-1],"split_conditions":[1.76E2,1.283E3,1.051416E6,8.859E2,9.984E3,-3.6878377E-1,3.5502136E-1,3E0,1.31351E3,1E0,1.673022E4,1.23E2,-3.318961E-1,2E0,-3.6816153E-1,9.90387E3,2E0,7.5695415E0,4E0,-2.1521291E-1,1E1,2.3063914E-1,-3.114271E-1,1.9941788E0,3E0,2E0,7E0,1.5818E4,8E0,1.8E1,1.2892973E5,3.4731376E-1,2.5232201E-2,-2.2924115E-1,3.3387753E-1,1.0479172E-1,-4.0800765E-1,3.68549E-1,-3.343578E-1,-2.2761331E-1,-3.9505997E-1,2.6562944E-1,3.4875482E-1,3.0636197E-1,-8.2082987E-1,2.8351662E-1,-2.690527E-1,-9.0720874E-1,-4.4001615E-1],"split_indices":[4,3,2,2,3,0,0,7,2,9,5,3,0,7,0,2,7,8,0,0,11,0,0,8,0,0,11,3,7,7,5,0,0,0,0,0,0,0,0,0,0,0,0,0,0,0,0,0,0],"split_type":[0,0,0,0,0,0,0,0,0,0,0,0,0,0,0,0,0,0,0,0,0,0,0,0,0,0,0,0,0,0,0,0,0,0,0,0,0,0,0,0,0,0,0,0,0,0,0,0,0],"sum_hessian":[2.160145E3,1.5411602E3,6.189848E2,3.2143182E2,1.2197284E3,5.977972E2,2.1187613E1,2.1979643E1,2.9945218E2,1.2706295E2,1.0926654E3,1.4057586E1,7.922057E0,1.0389381E1,2.890628E2,7.6589676E1,5.047328E1,8.7591943E2,2.1674602E2,1.1116567E0,1.2945929E1,2.6270852E0,7.762296E0,6.08858E1,1.5703874E1,8.398537E0,4.2074745E1,8.42101E2,3.3818413E1,1.9153912E2,2.5206902E1,1.1351283E1,1.5946461E0,3.6600502E0,5.722575E1,8.135309E0,7.5685644E0,7.083607E0,1.3149291E0,1.2661012E1,2.9413733E1,2.0728433E2,6.3481665E2,2.8325071E1,5.4933414E0,1.8490462E2,6.634505E0,1.3156954E1,1.2049949E1],"tree_param":{"num_deleted":"0","num_feature":"12","num_nodes":"49","size_leaf_vector":"1"}},{"base_weights":[-1.0552574E-2,3.9559948E-1,-1.0770515E0,-9.643921E-1,7.737561E-1,-3.4725034E-1,3.3056918E-1,1.0246625E-1,-1.1134909E0,8.425667E-1,-1.3239752E-1,8.839815E-1,-1.0618082E0,-7.89566E-1,-3.4800962E-1,1.0860164E0,6.1935925E-1,-9.111438E-1,1.038299E0,1.0145597E0,-2.4788193E-1,-3.3744457E-1,-4.239516E-2,-1.0028886E0,7.944315E-1,-3.9679673E-1,1.0977589E0,7.637863E-1,-1.0380747E0,-1.2687302E0,1.7345534E-1,1.1148973E0,-1.9237995E-2,-7.893611E-2,3.3023828E-1,1.7515324E-1,-3.4036675E-1,6.304474E-2,2.7174115E-1,3.319978E-1,-1.9242156E-1,-1.3160741E-1,3.3288923E-1,3.4267032E-1,-7.9958427E-1,1.5883824E-2,-4.453115E-1,1.7872387E-1,-3.0598977E-1,6.431868E-2,3.42824E-1],"categories":[],"categories_nodes":[],"categories_segments":[],"categories_sizes":[],"default_left":[0,0,0,0,0,0,0,0,0,0,0,0,0,0,0,0,0,0,0,0,0,0,0,0,0,0,0,0,0,0,0,0,0,0,0,0,0,0,0,0,0,0,0,0,0,0,0,0,0,0,0],"id":4,"left_children":[1,3,5,7,9,-1,-1,11,13,15,17,19,21,23,-1,25,27,29,31,33,-1,-1,-1,35,37,-1,39,41,43,45,47,49,-1,-1,-1,-1,-1,-1,-1,-1,-1,-1,-1,-1,-1,-1,-1,-1,-1,-1,-1],"loss_changes":[7.594977E2,6.5380505E2,8.6043884E1,4.4129974E1,6.2097595E1,0E0,0E0,3.2644737E1,2.745453E0,4.9542114E1,6.569908E1,5.616474E0,6.7910004E-1,1.2164507E1,0E0,1.3915955E1,1.16750916E2,1.6969238E1,2.5068932E0,2.529274E0,0E0,0E0,0E0,6.949085E0,1.0579014E-1,0E0,7.5064087E0,1.8603201E2,1.4230215E2,9.3694E0,6.447451E0,4.3265152E-1,0E0,0E0,0E0,0E0,0E0,0E0,0E0,0E0,0E0,0E0,0E0,0E0,0E0,0E0,0E0,0E0,0E0,0E0,0E0],"parents":[2147483647,0,0,1,1,2,2,3,3,4,4,7,7,8,8,9,9,10,10,11,11,12,12,13,13,15,15,16,16,17,17,18,18,19,19,23,23,24,24,26,26,27,27,28,28,29,29,30,30,31,31],"right_children":[2,4,6,8,10,-1,-1,12,14,16,18,20,22,24,-1,26,28,30,32,34,-1,-1,-1,36,38,-1,40,42,44,46,48,50,-1,-1,-1,-1,-1,-1,-1,-1,-1,-1,-1,-1,-1,-1,-1,-1,-1,-1,-1],"split_conditions":[1.76E2,2.5895476E3,1.051416E6,2E0,1.47338E5,-3.4725034E-1,3.3056918E-1,2.59374E3,2.59374E3,3E0,1.5643952E5,1E0,7.837943E6,4E0,-3.4800962E-1,3E0,1.2202728E5,9.214987E6,3E0,5.0467935E0,-2.4788193E-1,-3.3744457E-1,-4.239516E-2,2E0,5.450192E0,-3.9679673E-1,1.9E1,4E0,4E0,4.466829E4,2E0,1.6234064E6,-1.9237995E-2,-7.893611E-2,3.3023828E-1,1.7515324E-1,-3.4036675E-1,6.304474E-2,2.7174115E-1,3.319978E-1,-1.9242156E-1,-1.3160741E-1,3.3288923E-1,3.4267032E-1,-7.9958427E-1,1.5883824E-2,-4.453115E-1,1.7872387E-1,-3.0598977E-1,6.431868E-2,3.42824E-1],"split_indices":[4,3,2,7,5,0,0,2,2,0,3,9,6,0,0,1,6,6,0,8,0,0,0,0,8,0,7,0,0,2,0,6,0,0,0,0,0,0,0,0,0,0,0,0,0,0,0,0,0,0,0],"split_type":[0,0,0,0,0,0,0,0,0,0,0,0,0,0,0,0,0,0,0,0,0,0,0,0,0,0,0,0,0,0,0,0,0,0,0,0,0,0,0,0,0,0,0,0,0,0,0,0,0,0,0],"sum_hessian":[1.7514015E3,1.2688265E3,4.825749E2,2.7571234E2,9.931142E2,4.6584415E2,1.673077E1,3.384578E1,2.4186656E2,9.230878E2,7.0026405E1,2.0395868E1,1.3449912E1,3.2642204E1,2.0922435E2,4.3967468E2,4.8341315E2,4.2186012E1,2.7840393E1,1.9327024E1,1.0688431E0,1.2380502E1,1.0694096E0,2.9091246E1,3.5509586E0,1.5914503E0,4.3808322E2,4.451614E2,3.8251736E1,3.159842E1,1.0587594E1,2.6021091E1,1.8193021E0,1.0922753E0,1.823475E1,1.9658917E0,2.7125355E1,1.0306835E0,2.5202749E0,4.3621454E2,1.8686922E0,9.93745E1,3.457869E2,1.64749E1,2.1776836E1,4.538179E0,2.7060242E1,8.19028E0,2.397314E0,1.0415437E0,2.4979548E1],"tree_param":{"num_deleted":"0","num_feature":"12","num_nodes":"51","size_leaf_vector":"1"}},{"base_weights":[-9.994437E-3,3.5616356E-1,-1.031576E0,-7.6759875E-1,7.407848E-1,-3.3298382E-1,3.1224486E-1,3.9241794E-1,-9.826814E-1,8.5162556E-1,2.813977E-1,-3.1123933E-1,8.240152E-1,-1.0901508E0,-5.732827E-1,4.803336E-1,9.442418E-1,5.7308865E-1,-4.5496354E-1,9.127295E-1,-2.8138793E-1,-5.4072535E-1,-3.3047685E-1,-8.832979E-1,5.202157E-1,9.814442E-1,-1.7906342E0,9.5681655E-1,-3.586384E-1,1.0170649E0,6.650745E-2,3.1526038E-1,-7.151392E-2,8.90342E-2,-2.586127E-1,-1.428305E-2,-3.7530544E-1,3.2329342E-1,-2.5598115E-1,3.0292794E-1,-2.3904623E-1,-8.7253076E-1,5.376556E-2,3.034481E-1,2.0252483E-1,-9.495077E-2,3.17171E-1,-2.839962E-1,1.8788825E-1],"categories":[],"categories_nodes":[],"categories_segments":[],"categories_sizes":[],"default_left":[0,0,0,0,0,0,0,0,0,0,0,0,0,0,0,0,0,0,0,0,0,0,0,0,0,0,0,0,0,0,0,0,0,0,0,0,0,0,0,0,0,0,0,0,0,0,0,0,0],"id":5,"left_children":[1,3,5,7,9,-1,-1,11,13,15,17,-1,19,21,23,25,27,29,-1,31,-1,33,-1,35,37,39,41,43,-1,45,47,-1,-1,-1,-1,-1,-1,-1,-1,-1,-1,-1,-1,-1,-1,-1,-1,-1,-1],"loss_changes":[5.2679083E2,4.4867175E2,6.1505127E1,6.646524E1,3.911508E1,0E0,0E0,2.686104E1,9.217728E0,2.0941254E1,8.044192E1,0E0,6.0030136E0,5.1097107E-1,1.6942944E1,1.4542665E2,1.4514008E1,2.945723E1,0E0,5.3159275E0,0E0,1.7507915E0,0E0,1.1695852E1,9.624302E0,6.0448303E0,5.1551964E1,6.93573E0,0E0,4.078743E0,3.597429E1,0E0,0E0,0E0,0E0,0E0,0E0,0E0,0E0,0E0,0E0,0E0,0E0,0E0,0E0,0E0,0E0,0E0,0E0],"parents":[2147483647,0,0,1,1,2,2,3,3,4,4,7,7,8,8,9,9,10,10,12,12,13,13,14,14,15,15,16,16,17,17,19,19,21,21,23,23,24,24,25,25,26,26,27,27,29,29,30,30],"right_children":[2,4,6,8,10,-1,-1,12,14,16,18,-1,20,22,24,26,28,30,-1,32,-1,34,-1,36,38,40,42,44,-1,46,48,-1,-1,-1,-1,-1,-1,-1,-1,-1,-1,-1,-1,-1,-1,-1,-1,-1,-1],"split_conditions":[1.76E2,6.966E3,1.051416E6,2E0,1.9636564E4,-3.3298382E-1,3.1224486E-1,1.23E2,1.283E3,1.2806316E4,4E0,-3.1123933E-1,2.5E1,6.4112E2,4E0,1.2789895E4,1.05E2,4E0,-4.5496354E-1,6.84548E3,-2.8138793E-1,3E0,-3.3047685E-1,3E0,6.84548E3,1.7E1,1.124023E5,1.308493E5,-3.586384E-1,1.9E1,2.8635598E4,3.1526038E-1,-7.151392E-2,8.90342E-2,-2.586127E-1,-1.428305E-2,-3.7530544E-1,3.2329342E-1,-2.5598115E-1,3.0292794E-1,-2.3904623E-1,-8.7253076E-1,5.376556E-2,3.034481E-1,2.0252483E-1,-9.495077E-2,3.17171E-1,-2.839962E-1,1.8788825E-1],"split_indices":[4,3,2,7,5,0,0,3,3,3,0,0,11,2,0,2,1,7,0,2,0,7,0,0,2,11,6,6,0,1,3,0,0,0,0,0,0,0,0,0,0,0,0,0,0,0,0,0,0],"split_type":[0,0,0,0,0,0,0,0,0,0,0,0,0,0,0,0,0,0,0,0,0,0,0,0,0,0,0,0,0,0,0,0,0,0,0,0,0,0,0,0,0,0,0,0,0,0,0,0,0],"sum_hessian":[1.4063225E3,1.0357408E3,3.7058163E2,2.6384866E2,7.718922E2,3.5752576E2,1.3055853E1,4.114026E1,2.227084E2,6.211642E2,1.5072803E2,9.213185E0,3.1927074E1,1.7508485E2,4.762355E1,1.25246475E2,4.9591766E2,1.3027414E2,2.0453894E1,3.0855505E1,1.07157E0,4.5552845E0,1.7052957E2,3.7253983E1,1.0369565E1,1.0307076E2,2.2175713E1,4.9356985E2,2.3478158E0,6.889004E1,6.1384094E1,2.7627195E1,3.228308E0,1.2842568E0,3.2710276E0,1.1728666E1,2.5525318E1,7.529225E0,2.84034E0,1.0188067E2,1.1900958E0,1.38436165E1,8.332096E0,4.111804E2,8.238947E1,1.8133695E0,6.707667E1,2.1599653E1,3.9784443E1],"tree_param":{"num_deleted":"0","num_feature":"12","num_nodes":"49","size_leaf_vector":"1"}},{"base_weights":[-1.2174098E-2,3.1886253E-1,-9.99505E-1,-9.577176E-1,5.971927E-1,-3.2312045E-1,2.971319E-1,-8.1770904E-2,-3.2108185E-1,9.327355E-1,3.8411206E-1,6.1228824E-1,-2.900316E-1,9.5349866E-1,-7.152351E-1,1.8125896E-1,1.0428331E0,-1.9251719E-1,8.1171304E-1,-3.124768E-1,9.6838933E-1,-3.343362E-1,6.1205547E-2,4.6012893E-1,-1.3633515E0,1.069002E0,-1.9985932E-1,2.8220442E-1,2.3920301E-2,2.933568E-1,-1.095014E-1,3.8910624E-2,2.8471684E-1,-4.803534E-1,1.19926564E-1,3.248157E-1,1.8907342E-2],"categories":[],"categories_nodes":[],"categories_segments":[],"categories_sizes":[],"default_left":[0,0,0,0,0,0,0,0,0,0,0,0,0,0,0,0,0,0,0,0,0,0,0,0,0,0,0,0,0,0,0,0,0,0,0,0,0],"id":6,"left_children":[1,3,5,7,9,-1,-1,11,-1,13,15,17,-1,19,21,23,25,-1,27,-1,29,-1,-1,31,33,35,-1,-1,-1,-1,-1,-1,-1,-1,-1,-1,-1],"loss_changes":[3.6811917E2,3.002802E2,4.47164E1,1.4836716E1,4.9199432E1,0E0,0E0,1.18440895E1,0E0,9.869537E0,5.668501E1,3.241571E0,0E0,8.899033E0,1.6631179E0,1.4132043E2,5.1845856E0,0E0,8.527751E-1,0E0,3.6911926E0,0E0,0E0,4.4695847E1,2.169143E1,1.2961578E0,0E0,0E0,0E0,0E0,0E0,0E0,0E0,0E0,0E0,0E0,0E0],"parents":[2147483647,0,0,1,1,2,2,3,3,4,4,7,7,9,9,10,10,11,11,13,13,14,14,15,15,16,16,18,18,20,20,23,23,24,24,25,25],"right_children":[2,4,6,8,10,-1,-1,12,-1,14,16,18,-1,20,22,24,26,-1,28,-1,30,-1,-1,32,34,36,-1,-1,-1,-1,-1,-1,-1,-1,-1,-1,-1],"split_conditions":[1.76E2,1.283E3,1.051416E6,1.31351E3,4E0,-3.2312045E-1,2.971319E-1,3E0,-3.2108185E-1,2.5E1,1.4922352E5,5.1781425E0,-2.900316E-1,3E0,6.084103E4,1.0754028E5,1.6E1,-1.9251719E-1,6.5E1,-3.124768E-1,9.800682E6,-3.343362E-1,6.1205547E-2,4E0,9.513946E6,2E0,-1.9985932E-1,2.8220442E-1,2.3920301E-2,2.933568E-1,-1.095014E-1,3.8910624E-2,2.8471684E-1,-4.803534E-1,1.19926564E-1,3.248157E-1,1.8907342E-2],"split_indices":[4,3,2,2,7,0,0,7,0,11,3,8,0,1,3,2,7,0,1,0,6,0,0,0,6,10,0,0,0,0,0,0,0,0,0,0,0],"split_type":[0,0,0,0,0,0,0,0,0,0,0,0,0,0,0,0,0,0,0,0,0,0,0,0,0,0,0,0,0,0,0,0,0,0,0,0,0],"sum_hessian":[1.1243136E3,8.4251013E2,2.8180344E2,1.5037306E2,6.921371E2,2.7167303E2,1.0130391E1,1.731872E1,1.3305434E2,2.675084E2,4.2462866E2,9.879167E0,7.4395533E0,2.645961E2,2.9122992E0,3.2562704E2,9.900164E1,1.0511993E0,8.827967E0,1.4494202E0,2.6314667E2,1.8824369E0,1.0298623E0,2.764227E2,4.9204323E1,9.7877426E1,1.1242115E0,7.2631435E0,1.5648236E0,2.6155634E2,1.5903319E0,1.6570274E2,1.1071996E2,4.343693E1,5.7673883E0,9.648553E1,1.3919047E0],"tree_param":{"num_deleted":"0","num_feature":"12","num_nodes":"37","size_leaf_vector":"1"}},{"base_weights":[-1.3164545E-2,2.7865744E-1,-9.7575617E-1,-7.109827E-1,5.891292E-1,-3.1605625E-1,2.8354076E-1,3.136982E-1,-9.0632814E-1,6.96193E-1,3.2025754E-2,-2.7850357E-1,6.7012143E-1,-6.2345076E-1,-1.0493414E0,7.4317944E-1,-3.3184063E-1,-8.4906554E-1,4.3104947E-1,-2.310679E-1,7.9041475E-1,-8.551609E-1,8.3269507E-1,-6.5046936E-1,-3.2113704E-1,5.978078E-1,1.0024295E0,3.8168254E-1,-5.0867057E-1,7.1894467E-1,-1.4827443E0,1.0209426E0,-2.8500688E-1,2.614095E-1,-8.595965E-2,-3.2522523E-1,1.3544802E-1,1.4894344E-2,2.8429556E-1,-2.6848042E-1,1.0500368E-1,2.1908708E-1,-5.3210133E-1,3.0780745E-1,-1.4067228E-1,-2.3045376E-1,1.7526391E-1,-8.540662E-2,2.6696727E-1,-1.0198446E-1,-6.624071E-1,1.4380396E-2,3.1488985E-1,-3.6829728E-1,2.9144964E-1],"categories":[],"categories_nodes":[],"categories_segments":[],"categories_sizes":[],"default_left":[0,0,0,0,0,0,0,0,0,0,0,0,0,0,0,0,0,0,0,0,0,0,0,0,0,0,0,0,0,0,0,0,0,0,0,0,0,0,0,0,0,0,0,0,0,0,0,0,0,0,0,0,0,0,0],"id":7,"left_children":[1,3,5,7,9,-1,-1,11,13,15,17,-1,19,21,23,25,27,29,31,-1,33,35,37,39,-1,41,43,45,-1,47,49,51,53,-1,-1,-1,-1,-1,-1,-1,-1,-1,-1,-1,-1,-1,-1,-1,-1,-1,-1,-1,-1,-1,-1],"loss_changes":[2.582987E2,2.1723141E2,3.294922E1,3.4105164E1,3.2047913E1,0E0,0E0,1.2927459E1,5.097168E0,2.2029541E1,3.1207022E1,0E0,4.451682E0,1.765084E1,8.668518E-2,1.5665039E1,2.0498932E1,2.8569805E1,2.6074757E1,0E0,2.0772324E0,1.3592457E1,6.18947E-1,2.079773E0,0E0,8.894651E1,5.8125763E0,3.758035E0,0E0,1.7357392E0,1.5859638E1,8.900986E-1,3.4776527E1,0E0,0E0,0E0,0E0,0E0,0E0,0E0,0E0,0E0,0E0,0E0,0E0,0E0,0E0,0E0,0E0,0E0,0E0,0E0,0E0,0E0,0E0],"parents":[2147483647,0,0,1,1,2,2,3,3,4,4,7,7,8,8,9,9,10,10,12,12,13,13,14,14,15,15,16,16,17,17,18,18,20,20,21,21,22,22,23,23,25,25,26,26,27,27,29,29,30,30,31,31,32,32],"right_children":[2,4,6,8,10,-1,-1,12,14,16,18,-1,20,22,24,26,28,30,32,-1,34,36,38,40,-1,42,44,46,-1,48,50,52,54,-1,-1,-1,-1,-1,-1,-1,-1,-1,-1,-1,-1,-1,-1,-1,-1,-1,-1,-1,-1,-1,-1],"split_conditions":[1.76E2,6.966E3,1.051416E6,2E0,2E0,-3.1605625E-1,2.8354076E-1,1.23E2,7.042461E3,7.4248896E0,2.057451E4,-2.7850357E-1,2.5868964E0,4E0,3E0,7.475202E4,8E0,1.0253488E4,3.804024E4,-2.310679E-1,2.4E1,7.8801714E3,4.7163167E0,2.5895476E3,-3.2113704E-1,1.3038317E5,1.6E1,2.5023506E4,-5.0867057E-1,7.43094E3,2E0,2.1804E4,2.100494E5,2.614095E-1,-8.595965E-2,-3.2522523E-1,1.3544802E-1,1.4894344E-2,2.8429556E-1,-2.6848042E-1,1.0500368E-1,2.1908708E-1,-5.3210133E-1,3.0780745E-1,-1.4067228E-1,-2.3045376E-1,1.7526391E-1,-8.540662E-2,2.6696727E-1,-1.0198446E-1,-6.624071E-1,1.4380396E-2,3.1488985E-1,-3.6829728E-1,2.9144964E-1],"split_indices":[4,3,2,7,10,0,0,3,2,8,3,0,8,0,7,3,7,2,2,0,11,5,8,3,0,2,7,3,0,3,0,3,3,0,0,0,0,0,0,0,0,0,0,0,0,0,0,0,0,0,0,0,0,0,0],"split_type":[0,0,0,0,0,0,0,0,0,0,0,0,0,0,0,0,0,0,0,0,0,0,0,0,0,0,0,0,0,0,0,0,0,0,0,0,0,0,0,0,0,0,0,0,0,0,0,0,0,0,0,0,0,0,0],"sum_hessian":[9.17554E2,7.0464294E2,2.1291104E2,1.6796341E2,5.3667957E2,2.0506097E2,7.850064E0,2.6796583E1,1.4116684E2,4.499574E2,8.672216E1,5.61726E0,2.1179323E1,4.9203228E1,9.196361E1,4.3055582E2,1.9401558E1,2.6680536E1,6.0041622E1,1.2160375E0,1.9963285E1,4.2804638E1,6.398591E0,6.2226386E0,8.574097E1,2.7798477E2,1.5257104E2,1.3210002E1,6.1915565E0,7.640327E0,1.9040209E1,3.2687557E1,2.7354065E1,1.8745173E1,1.2181127E0,3.6568283E1,6.236354E0,1.0024076E0,5.3961835E0,5.085504E0,1.1371344E0,2.6393228E2,1.4052494E1,1.5046082E2,2.110232E0,1.5600352E0,1.1649966E1,1.0151223E0,6.6252046E0,7.962578E0,1.1077632E1,1.0127169E0,3.1674839E1,1.5642083E1,1.1711983E1],"tree_param":{"num_deleted":"0","num_feature":"12","num_nodes":"55","size_leaf_vector":"1"}},{"base_weights":[-1.6435536E-2,2.4528722E-1,-9.5717186E-1,-6.717419E-1,5.175977E-1,-3.108118E-1,2.7044067E-1,2.6043552E-1,-8.6023194E-1,8.4003687E-1,3.375162E-1,-2.6262864E-1,5.7562554E-1,-1.0106207E0,-5.1051676E-1,9.398287E-1,4.3413317E-1,4.076791E-1,-1.1614127E0,7.808962E-1,-3.8337657E-1,-4.4505635E-1,-3.092392E-1,-8.1356876E-2,-3.1810665E-1,9.5465726E-1,-8.816233E-2,-9.976314E-1,9.689561E-1,5.517709E-1,-3.365078E-1,-2.3073177E0,4.4815445E-1,2.696497E-1,-4.8908148E-2,-3.0492923E-1,1.729677E-1,7.345775E-2,-2.2111224E-1,1.3776395E-1,-2.2001447E-1,-4.507277E-2,2.9003528E-1,1.985547E-1,-4.2842218E-1,1.16546504E-1,3.0358386E-1,1.9884473E-1,-8.3957866E-2,-4.9109292E-1,-8.65974E-3,-7.447291E-1,-1.771777E-1,2.6541704E-1,-2.8048497E-1],"categories":[],"categories_nodes":[],"categories_segments":[],"categories_sizes":[],"default_left":[0,0,0,0,0,0,0,0,0,0,0,0,0,0,0,0,0,0,0,0,0,0,0,0,0,0,0,0,0,0,0,0,0,0,0,0,0,0,0,0,0,0,0,0,0,0,0,0,0,0,0,0,0,0,0],"id":8,"left_children":[1,3,5,7,9,-1,-1,11,13,15,17,-1,19,21,23,25,27,29,31,33,35,37,-1,39,-1,41,-1,43,45,47,49,51,53,-1,-1,-1,-1,-1,-1,-1,-1,-1,-1,-1,-1,-1,-1,-1,-1,-1,-1,-1,-1,-1,-1],"loss_changes":[1.823318E2,1.4503671E2,2.4560898E1,2.3610035E1,2.5690018E1,0E0,0E0,8.793288E0,5.3189316E0,6.0577927E0,3.0834663E1,0E0,3.986034E0,4.1487122E-1,8.263051E0,2.6088028E0,2.6510658E1,2.9837265E1,2.5322567E1,1.9004459E0,3.0001307E0,1.0662313E0,0E0,7.7228513E0,0E0,1.833435E0,0E0,7.777358E0,2.2558403E-1,2.1614304E1,1.814704E1,8.952522E-1,4.639556E0,0E0,0E0,0E0,0E0,0E0,0E0,0E0,0E0,0E0,0E0,0E0,0E0,0E0,0E0,0E0,0E0,0E0,0E0,0E0,0E0,0E0,0E0],"parents":[2147483647,0,0,1,1,2,2,3,3,4,4,7,7,8,8,9,9,10,10,12,12,13,13,14,14,15,15,16,16,17,17,18,18,19,19,20,20,21,21,23,23,25,25,27,27,28,28,29,29,30,30,31,31,32,32],"right_children":[2,4,6,8,10,-1,-1,12,14,16,18,-1,20,22,24,26,28,30,32,34,36,38,-1,40,-1,42,-1,44,46,48,50,52,54,-1,-1,-1,-1,-1,-1,-1,-1,-1,-1,-1,-1,-1,-1,-1,-1,-1,-1,-1,-1,-1,-1],"split_conditions":[1.76E2,6.966E3,1.051416E6,2E0,4E0,-3.108118E-1,2.7044067E-1,1.23E2,1.0563E3,1.5798212E5,1.9E1,-2.6262864E-1,6.67534E3,8.859E2,1E1,2.5E1,1.5643952E5,2E0,5.1202E4,1E0,1.1703428E5,3E0,-3.092392E-1,7.042461E3,-3.1810665E-1,2.812343E-1,-8.816233E-2,2.0353803E4,5.93291E5,3.645984E4,2.3922446E0,1.2085681E5,3.5517776E3,2.696497E-1,-4.8908148E-2,-3.0492923E-1,1.729677E-1,7.345775E-2,-2.2111224E-1,1.3776395E-1,-2.2001447E-1,-4.507277E-2,2.9003528E-1,1.985547E-1,-4.2842218E-1,1.16546504E-1,3.0358386E-1,1.9884473E-1,-8.3957866E-2,-4.9109292E-1,-8.65974E-3,-7.447291E-1,-1.771777E-1,2.6541704E-1,-2.8048497E-1],"split_indices":[4,3,2,7,7,0,0,3,3,6,11,0,2,2,7,11,3,10,3,9,6,7,0,2,0,8,0,2,3,5,8,5,6,0,0,0,0,0,0,0,0,0,0,0,0,0,0,0,0,0,0,0,0,0,0],"split_type":[0,0,0,0,0,0,0,0,0,0,0,0,0,0,0,0,0,0,0,0,0,0,0,0,0,0,0,0,0,0,0,0,0,0,0,0,0,0,0,0,0,0,0,0,0,0,0,0,0,0,0,0,0,0,0],"sum_hessian":[7.385941E2,5.7841284E2,1.6018127E2,1.320972E2,4.463156E2,1.5408557E2,6.095702E0,2.2153816E1,1.0994339E2,1.5862677E2,2.8768884E2,4.4260383E0,1.7727777E1,7.556023E1,3.438316E1,1.2626822E2,3.2358555E1,2.7552014E2,1.216872E1,1.4755203E1,2.9725735E0,3.3970406E0,7.216319E1,1.995548E1,1.4427679E1,1.2499205E2,1.2761627E0,8.564729E0,2.3793825E1,2.3104335E2,4.447678E1,6.854949E0,5.313771E0,1.3158871E1,1.5963334E0,1.7558079E0,1.2167656E0,1.058161E0,2.3388796E0,1.107189E1,8.883591E0,1.2333231E0,1.2375873E2,1.6532749E0,6.911454E0,2.3327613E0,2.1461063E1,2.0400609E2,2.703726E1,7.6820536E0,3.6794727E1,5.8156996E0,1.0392495E0,4.312796E0,1.0009745E0],"tree_param":{"num_deleted":"0","num_feature":"12","num_nodes":"55","size_leaf_vector":"1"}},{"base_weights":[-1.9647786E-2,2.0860855E-1,-9.4162345E-1,-6.454278E-1,4.3638036E-1,-3.0674446E-1,2.572224E-1,-1.1731677E-1,-9.474536E-1,2.7295285E-1,8.455873E-1,-2.888818E-1,3.0233425E-1,-9.921625E-1,-3.0283076E-1,4.9391735E-1,-1.0659745E0,9.00838E-1,-1.3452764E-1,1.0586605E0,-1.5082547E-1,-5.15352E-1,-3.0489805E-1,3.1623346E-1,-2.3025239E-1,5.6053734E-1,-7.523203E-1,-1.3894072E0,1.5961541E-1,9.3128705E-1,-2.2449699E-1,2.1125218E-1,-1.1131532E0,3.6677402E-1,-4.439612E-2,9.210087E-2,-3.2148126E-1,-2.3171793E-1,7.4738406E-2,1.7961907E-1,-3.9677367E-2,2.5398475E-1,9.342469E-2,1.507617E-1,-6.6268796E-1,5.5265613E-2,-4.710941E-1,2.9944572E-1,-3.4027684E-1,2.8779516E-1,-2.3313566E-1,-4.222306E-1,-5.9557598E-2],"categories":[],"categories_nodes":[],"categories_segments":[],"categories_sizes":[],"default_left":[0,0,0,0,0,0,0,0,0,0,0,0,0,0,0,0,0,0,0,0,0,0,0,0,0,0,0,0,0,0,0,0,0,0,0,0,0,0,0,0,0,0,0,0,0,0,0,0,0,0,0,0,0],"id":9,"left_children":[1,3,5,7,9,-1,-1,11,13,15,17,-1,19,21,23,25,27,29,31,33,35,37,-1,39,-1,41,43,45,47,49,-1,-1,51,-1,-1,-1,-1,-1,-1,-1,-1,-1,-1,-1,-1,-1,-1,-1,-1,-1,-1,-1,-1],"loss_changes":[1.2852876E2,9.552417E1,1.8506332E1,1.63959E1,2.5658394E1,0E0,0E0,1.4057777E1,1.5929489E0,8.280902E1,6.078293E0,0E0,9.30671E0,1.7901611E-1,1.8824835E0,2.0298096E1,1.5963833E1,5.932686E0,6.3162217E0,2.1833878E0,7.733334E0,1.1692042E0,0E0,4.7857738E-1,0E0,1.5973343E1,2.4096306E1,9.263515E0,1.1101792E1,5.6693115E0,0E0,0E0,6.6215944E-1,0E0,0E0,0E0,0E0,0E0,0E0,0E0,0E0,0E0,0E0,0E0,0E0,0E0,0E0,0E0,0E0,0E0,0E0,0E0,0E0],"parents":[2147483647,0,0,1,1,2,2,3,3,4,4,7,7,8,8,9,9,10,10,12,12,13,13,14,14,15,15,16,16,17,17,18,18,19,19,20,20,21,21,23,23,25,25,26,26,27,27,28,28,29,29,32,32],"right_children":[2,4,6,8,10,-1,-1,12,14,16,18,-1,20,22,24,26,28,30,32,34,36,38,-1,40,-1,42,44,46,48,50,-1,-1,52,-1,-1,-1,-1,-1,-1,-1,-1,-1,-1,-1,-1,-1,-1,-1,-1,-1,-1,-1,-1],"split_conditions":[1.76E2,6.346E3,1.051416E6,5E0,8.535469E4,-3.0674446E-1,2.572224E-1,1.73E2,5.20354E3,9.792528E4,1.4E1,-2.888818E-1,2E0,6E0,6.24842E3,1.6E1,3.7267702E6,1E7,2.5057866E5,2.8461223E4,6.24842E3,1.283E3,-3.0489805E-1,4.9026837E0,-2.3025239E-1,3E0,1E0,9.44847E3,1E0,8.288129E0,-2.2449699E-1,2.1125218E-1,5.71628E5,3.6677402E-1,-4.439612E-2,9.210087E-2,-3.2148126E-1,-2.3171793E-1,7.4738406E-2,1.7961907E-1,-3.9677367E-2,2.5398475E-1,9.342469E-2,1.507617E-1,-6.6268796E-1,5.5265613E-2,-4.710941E-1,2.9944572E-1,-3.4027684E-1,2.8779516E-1,-2.3313566E-1,-4.222306E-1,-5.9557598E-2],"split_indices":[4,3,2,7,3,0,0,3,3,2,7,0,0,7,2,11,6,6,2,5,2,3,0,8,0,0,9,3,9,8,0,0,6,0,0,0,0,0,0,0,0,0,0,0,0,0,0,0,0,0,0,0,0],"split_type":[0,0,0,0,0,0,0,0,0,0,0,0,0,0,0,0,0,0,0,0,0,0,0,0,0,0,0,0,0,0,0,0,0,0,0,0,0,0,0,0,0,0,0,0,0,0,0,0,0,0,0,0,0],"sum_hessian":[6.0880896E2,4.886148E2,1.2019413E2,1.0249046E2,3.8612436E2,1.1543741E2,4.7567225E0,3.779389E1,6.469657E1,2.7711734E2,1.0900702E2,1.2105648E1,2.5688244E1,5.9996284E1,4.7002826E0,2.3840434E2,3.871299E1,1.03266594E2,5.740422E0,9.1240225E0,1.6564222E1,3.9708185E0,5.6025467E1,2.1523197E0,2.5479631E0,2.2682898E2,1.1575358E1,3.0524044E1,8.188948E0,1.0182192E2,1.4446766E0,3.2422204E0,2.4982014E0,8.021166E0,1.102856E0,1.1508543E1,5.0556793E0,2.963912E0,1.0069064E0,1.1150084E0,1.0373113E0,1.0446658E2,1.223624E2,6.57025E0,5.005108E0,3.145386E0,2.7378658E1,5.1074476E0,3.0814996E0,1.0060967E2,1.212247E0,1.482424E0,1.0157773E0],"tree_param":{"num_deleted":"0","num_feature":"12","num_nodes":"53","size_leaf_vector":"1"}},{"base_weights":[-2.3233796E-2,1.7521068E-1,-9.275602E-1,-3.4087518E-1,4.95046E-1,-3.034034E-1,2.435901E-1,1.3507019E-1,-1.116534E0,5.2662724E-1,-4.1280285E-1,-2.4755765E-1,9.990826E-1,-7.799326E-1,-1.9568825E0,7.3466116E-1,2.3562847E-1,7.4379903E-1,-9.15809E-1,3.0565298E-1,7.201685E-2,-3.9371672E-1,-3.1035858E-1,-2.3221712E0,-9.170432E-1,-4.885367E-2,7.937919E-1,6.023815E-1,-4.8831525E-1,2.792394E-1,-2.518228E-1,-3.4992096E-1,3.178589E-1,-3.1385884E-1,2.7745882E-1,-7.725974E-1,-2.8146628E-1,-2.3620307E-2,-3.2224122E-1,2.2476462E-1,-2.853289E-1,2.438323E-1,-2.545881E-1,9.342557E-2,3.0401474E-1],"categories":[],"categories_nodes":[],"categories_segments":[],"categories_sizes":[],"default_left":[0,0,0,0,0,0,0,0,0,0,0,0,0,0,0,0,0,0,0,0,0,0,0,0,0,0,0,0,0,0,0,0,0,0,0,0,0,0,0,0,0,0,0,0,0],"id":10,"left_children":[1,3,5,7,9,-1,-1,11,13,15,-1,17,19,21,23,25,27,29,31,-1,-1,33,-1,35,37,39,41,43,-1,-1,-1,-1,-1,-1,-1,-1,-1,-1,-1,-1,-1,-1,-1,-1,-1],"loss_changes":[9.0817764E1,6.868567E1,1.4093155E1,5.9001945E1,1.5892097E1,0E0,0E0,3.3203083E1,1.5651451E1,1.51517105E1,0E0,4.6982346E1,2.1730614E-1,4.019745E0,4.2158165E0,6.8559036E0,7.410433E1,9.276393E0,2.2123821E1,0E0,0E0,1.7746122E1,0E0,1.6863022E0,7.049928E-1,8.825743E0,4.9571304E0,1.0463272E1,0E0,0E0,0E0,0E0,0E0,0E0,0E0,0E0,0E0,0E0,0E0,0E0,0E0,0E0,0E0,0E0,0E0],"parents":[2147483647,0,0,1,1,2,2,3,3,4,4,7,7,8,8,9,9,11,11,12,12,13,13,14,14,15,15,16,16,17,17,18,18,21,21,23,23,24,24,25,25,26,26,27,27],"right_children":[2,4,6,8,10,-1,-1,12,14,16,-1,18,20,22,24,26,28,30,32,-1,-1,34,-1,36,38,40,42,44,-1,-1,-1,-1,-1,-1,-1,-1,-1,-1,-1,-1,-1,-1,-1,-1,-1],"split_conditions":[1.76E2,1.2806316E4,1.051416E6,1.2789895E4,1.05E2,-3.034034E-1,2.435901E-1,4E0,1.0170713E4,5.057065E4,-4.1280285E-1,3E0,1E0,2.013633E3,9.603724E4,8E0,4E0,2.9909766E4,2.355963E1,3.0565298E-1,7.201685E-2,1.0848343E5,-3.1035858E-1,1.6E1,2E0,1.591862E4,9.754443E4,1.4922352E5,-4.8831525E-1,2.792394E-1,-2.518228E-1,-3.4992096E-1,3.178589E-1,-3.1385884E-1,2.7745882E-1,-7.725974E-1,-2.8146628E-1,-2.3620307E-2,-3.2224122E-1,2.2476462E-1,-2.853289E-1,2.438323E-1,-2.545881E-1,9.342557E-2,3.0401474E-1],"split_indices":[4,3,2,2,1,0,0,0,3,6,0,0,9,5,6,1,0,6,5,0,0,6,0,7,7,2,5,3,0,0,0,0,0,0,0,0,0,0,0,0,0,0,0,0,0],"split_type":[0,0,0,0,0,0,0,0,0,0,0,0,0,0,0,0,0,0,0,0,0,0,0,0,0,0,0,0,0,0,0,0,0,0,0,0,0,0,0,0,0,0,0,0,0],"sum_hessian":[5.0415967E2,4.140969E2,9.006275E1,1.5841418E2,2.5568271E2,8.632358E1,3.7391737E0,9.868611E1,5.9728073E1,2.5214534E2,3.5373833E0,6.889115E1,2.979496E1,4.4022842E1,1.5705232E1,1.4614337E2,1.0600195E2,2.7693922E1,4.1197227E1,2.8705343E1,1.0896168E0,1.850208E1,2.5520761E1,1.0709761E1,4.995471E0,1.0267476E1,1.358759E2,8.9134735E1,1.6867222E1,2.5136976E1,2.5569446E0,3.6922684E1,4.274545E0,1.251553E1,5.9865503E0,8.325926E0,2.3838356E0,1.0253012E0,3.9701698E0,5.5382676E0,4.729208E0,1.3482281E2,1.0530907E0,5.3217663E1,3.591707E1],"tree_param":{"num_deleted":"0","num_feature":"12","num_nodes":"45","size_leaf_vector":"1"}},{"base_weights":[-2.4365038E-2,1.5281858E-1,-9.1376215E-1,-2.8134745E-1,4.6381462E-1,-3.0044895E-1,2.2949708E-1,1.6761065E-1,-1.0705216E0,9.253098E-1,3.1155807E-1,-1.8696497E-1,9.757377E-1,-1.6368735E0,-6.0901684E-1,3.0002707E-1,5.133184E-1,1.2293823E-1,8.8635033E-1,7.152438E-1,-8.471286E-1,9.368712E-2,2.9794446E-1,-2.9890788E-1,-6.3030064E-1,5.438302E-1,-3.2163715E-1,-2.1000746E-1,7.5230986E-1,4.8351523E-1,-7.486503E-1,9.576201E-1,-7.5074986E-2,2.6321414E-1,-1.9319785E-1,-3.3332515E-1,2.985952E-1,2.8728592E-1,-2.3557702E-1,2.6858926E-1,-2.9488456E-2,4.532344E-2,2.4879126E-1,-3.524999E-1,1.2793263E-3,2.995188E-1,7.322538E-2,1.8234153E-1,-2.3786466E-1],"categories":[],"categories_nodes":[],"categories_segments":[],"categories_sizes":[],"default_left":[0,0,0,0,0,0,0,0,0,0,0,0,0,0,0,0,0,0,0,0,0,0,0,0,0,0,0,0,0,0,0,0,0,0,0,0,0,0,0,0,0,0,0,0,0,0,0,0,0],"id":11,"left_children":[1,3,5,7,9,-1,-1,11,13,15,17,19,21,23,25,-1,27,29,31,33,35,-1,-1,-1,-1,37,-1,-1,39,41,43,45,47,-1,-1,-1,-1,-1,-1,-1,-1,-1,-1,-1,-1,-1,-1,-1,-1],"loss_changes":[6.494431E1,4.6548164E1,1.08489685E1,5.12341E1,1.3812359E1,0E0,0E0,2.674808E1,1.2695583E1,1.0047455E0,1.6413923E1,3.948543E1,1.8283844E-2,4.7229652E0,1.684411E1,0E0,3.317516E0,3.6788815E1,2.6409607E0,6.7631454E0,1.9660507E1,0E0,0E0,0E0,0E0,5.9172955E0,0E0,0E0,1.1245813E0,9.369417E0,1.1019077E1,7.740059E-1,2.204812E0,0E0,0E0,0E0,0E0,0E0,0E0,0E0,0E0,0E0,0E0,0E0,0E0,0E0,0E0,0E0,0E0],"parents":[2147483647,0,0,1,1,2,2,3,3,4,4,7,7,8,8,9,9,10,10,11,11,12,12,13,13,14,14,16,16,17,17,18,18,19,19,20,20,25,25,28,28,29,29,30,30,31,31,32,32],"right_children":[2,4,6,8,10,-1,-1,12,14,16,18,20,22,24,26,-1,28,30,32,34,36,-1,-1,-1,-1,38,-1,-1,40,42,44,46,48,-1,-1,-1,-1,-1,-1,-1,-1,-1,-1,-1,-1,-1,-1,-1,-1],"split_conditions":[1.76E2,1.466E4,1.051416E6,1.458416E4,2E0,-3.0044895E-1,2.2949708E-1,4E0,8.284667E4,1.6395798E5,1.5643952E5,3E0,8.66E2,1.0119909E4,3.3714932E3,3.0002707E-1,1.6941478E5,8.932765E4,1.4E1,4.0662E4,2.355963E1,9.368712E-2,2.9794446E-1,-2.9890788E-1,-6.3030064E-1,4E0,-3.2163715E-1,-2.1000746E-1,3E0,2.6719006E4,8.8867E4,6.6186156E0,2.5057866E5,2.6321414E-1,-1.9319785E-1,-3.3332515E-1,2.985952E-1,2.8728592E-1,-2.3557702E-1,2.6858926E-1,-2.9488456E-2,4.532344E-2,2.4879126E-1,-3.524999E-1,1.2793263E-3,2.995188E-1,7.322538E-2,1.8234153E-1,-2.3786466E-1],"split_indices":[4,3,2,2,7,0,0,0,6,6,3,0,3,3,5,0,2,2,7,5,5,0,0,0,0,0,0,0,0,3,3,8,2,0,0,0,0,0,0,0,0,0,0,0,0,0,0,0,0],"split_type":[0,0,0,0,0,0,0,0,0,0,0,0,0,0,0,0,0,0,0,0,0,0,0,0,0,0,0,0,0,0,0,0,0,0,0,0,0,0,0,0,0,0,0,0,0,0,0,0,0],"sum_hessian":[4.1023215E2,3.4277374E2,6.7458405E1,1.4309763E2,1.9967612E2,6.449141E1,2.966997E0,9.1711136E1,5.1386497E1,4.827513E1,1.5140099E2,6.427732E1,2.7433815E1,2.192888E1,2.9457615E1,3.9650692E1,8.624436E0,1.14907585E2,3.6493393E1,2.7124435E1,3.7152885E1,1.185764E0,2.6248053E1,1.0535813E1,1.1393066E1,8.392134E0,2.1065481E1,1.1017658E0,7.5226703E0,8.159635E1,3.3311237E1,3.3978546E1,2.5148475E0,2.455044E1,2.5739958E0,3.284443E1,4.308453E0,6.6128283E0,1.7793056E0,6.3951035E0,1.1275667E0,4.2333942E1,3.9262405E1,2.0910023E1,1.2401216E1,3.1764122E1,2.2144234E0,1.3673128E0,1.1475346E0],"tree_param":{"num_deleted":"0","num_feature":"12","num_nodes":"49","size_leaf_vector":"1"}},{"base_weights":[-1.9846462E-2,1.381685E-1,-8.9920187E-1,-9.029029E-1,2.4291854E-1,-2.976043E-1,2.1508282E-1,4.483673E-2,-2.931487E-1,7.872706E-1,1.02969006E-1,-1.6562138E-1,8.5353255E-1,4.479654E-1,-2.1690795E-1,1.4926286E-1,-2.7929157E-1,8.8640827E-1,1.8100761E-1,5.6771654E-1,-2.3962756E-1,-5.999195E-1,6.42279E-1,1.7812398E-1,2.9081368E-1,-9.132354E-2,1.7349133E-1,1.8455274E-1,-7.905813E-2,4.318246E-2,-2.6922932E-1,-6.734358E-2,-3.9314252E-1,2.283856E-1,-2.2057207E-1],"categories":[],"categories_nodes":[],"categories_segments":[],"categories_sizes":[],"default_left":[0,0,0,0,0,0,0,0,0,0,0,0,0,0,0,0,0,0,0,0,0,0,0,0,0,0,0,0,0,0,0,0,0,0,0],"id":12,"left_children":[1,3,5,7,9,-1,-1,-1,-1,11,13,15,17,19,21,-1,-1,23,25,27,29,31,33,-1,-1,-1,-1,-1,-1,-1,-1,-1,-1,-1,-1],"loss_changes":[4.70302E1,3.151933E1,8.444065E0,2.2131195E0,1.9845606E1,0E0,0E0,0E0,0E0,3.5095139E0,2.318632E1,2.648582E0,9.458847E-1,8.451202E0,3.6333138E1,0E0,0E0,5.766182E-1,8.681373E-1,3.5668068E0,4.085981E0,1.9999992E1,6.1604548E0,0E0,0E0,0E0,0E0,0E0,0E0,0E0,0E0,0E0,0E0,0E0,0E0],"parents":[2147483647,0,0,1,1,2,2,3,3,4,4,9,9,10,10,11,11,12,12,13,13,14,14,17,17,18,18,19,19,20,20,21,21,22,22],"right_children":[2,4,6,8,10,-1,-1,-1,-1,12,14,16,18,20,22,-1,-1,24,26,28,30,32,34,-1,-1,-1,-1,-1,-1,-1,-1,-1,-1,-1,-1],"split_conditions":[1.76E2,4.64E2,1.051416E6,4.168E2,2E0,-2.976043E-1,2.1508282E-1,4.483673E-2,-2.931487E-1,9.932667E-1,1E0,1E0,1.47338E5,7.8E1,8.535469E4,1.4926286E-1,-2.7929157E-1,1.206867E4,5.93291E5,7.4248896E0,1.1E1,3.47952E4,2E0,1.7812398E-1,2.9081368E-1,-9.132354E-2,1.7349133E-1,1.8455274E-1,-7.905813E-2,4.318246E-2,-2.6922932E-1,-6.734358E-2,-3.9314252E-1,2.283856E-1,-2.2057207E-1],"split_indices":[4,3,2,2,7,0,0,0,0,8,9,10,5,1,3,0,0,3,3,8,7,2,10,0,0,0,0,0,0,0,0,0,0,0,0],"split_type":[0,0,0,0,0,0,0,0,0,0,0,0,0,0,0,0,0,0,0,0,0,0,0,0,0,0,0,0,0,0,0,0,0,0,0],"sum_hessian":[3.365712E2,2.8601828E2,5.0552917E1,2.5450977E1,2.6056732E2,4.817263E1,2.380286E0,1.6108197E0,2.3840158E1,5.2343807E1,2.0822351E2,3.3057241E0,4.9038086E1,9.998568E1,1.0823783E2,1.9585694E0,1.3471547E0,4.6449417E1,2.5886676E0,8.530356E1,1.4682116E1,7.507319E1,3.3164642E1,1.2061403E1,3.4388012E1,1.2703452E0,1.3183224E0,8.094216E1,4.3614E0,9.767694E0,4.9144216E0,4.9980553E1,2.5092634E1,3.0939108E1,2.2255328E0],"tree_param":{"num_deleted":"0","num_feature":"12","num_nodes":"35","size_leaf_vector":"1"}},{"base_weights":[-1.8286433E-2,1.1349983E-1,-8.8295877E-1,-2.5554666E-1,3.683299E-1,-2.9462528E-1,2.0060702E-1,1.4177492E-1,-9.8893553E-1,-7.0376825E-1,4.4291756E-1,-1.6069838E-1,9.301519E-1,-1.4313681E0,-4.9161944E-1,1.7160946E-1,-9.3801E-1,8.5401094E-1,2.4683566E-1,-7.704107E-1,7.167835E-1,2.886977E-1,8.814914E-2,-1.5577207E0,-7.239435E-1,4.5229876E-1,-9.343748E-1,-2.0069371E-1,-5.165899E-1,8.7781286E-1,-2.7016861E-2,-1.8573694E0,4.8255688E-1,-4.0544882E-1,2.3815872E-1,-2.299843E-1,2.945488E-1,-2.736073E-1,-5.4072446E-1,-2.4956003E-1,-4.8824217E-2,2.3403035E-1,-1.9014911E-1,-3.069359E-1,-8.0190755E-2,-2.9128474E-1,1.5840131E-1,2.7019945E-1,3.5566516E-2,-1.0035915E0,-1.0658004E-1,2.3864223E-1,4.7362883E-2],"categories":[],"categories_nodes":[],"categories_segments":[],"categories_sizes":[],"default_left":[0,0,0,0,0,0,0,0,0,0,0,0,0,0,0,0,0,0,0,0,0,0,0,0,0,0,0,0,0,0,0,0,0,0,0,0,0,0,0,0,0,0,0,0,0,0,0,0,0,0,0,0,0],"id":13,"left_children":[1,3,5,7,9,-1,-1,11,13,15,17,19,21,23,25,-1,27,29,31,33,35,-1,-1,37,39,41,43,45,-1,47,-1,49,51,-1,-1,-1,-1,-1,-1,-1,-1,-1,-1,-1,-1,-1,-1,-1,-1,-1,-1,-1,-1],"loss_changes":[3.3549828E1,2.413231E1,6.6453934E0,3.0734983E1,1.2435228E1,0E0,0E0,1.6597612E1,7.441757E0,3.5991144E0,1.1264698E1,2.7678703E1,1.1181259E-1,5.766678E-1,8.343151E0,0E0,4.87804E0,1.1029968E0,4.9402622E1,2.8703762E1,9.129068E0,0E0,0E0,7.751045E-1,1.527803E-1,2.888822E0,5.095444E-1,3.7619247E0,0E0,6.6601944E-1,0E0,2.129116E1,8.889826E0,0E0,0E0,0E0,0E0,0E0,0E0,0E0,0E0,0E0,0E0,0E0,0E0,0E0,0E0,0E0,0E0,0E0,0E0,0E0,0E0],"parents":[2147483647,0,0,1,1,2,2,3,3,4,4,7,7,8,8,9,9,10,10,11,11,12,12,13,13,14,14,16,16,17,17,18,18,19,19,20,20,23,23,24,24,25,25,26,26,27,27,29,29,31,31,32,32],"right_children":[2,4,6,8,10,-1,-1,12,14,16,18,20,22,24,26,-1,28,30,32,34,36,-1,-1,38,40,42,44,46,-1,48,-1,50,52,-1,-1,-1,-1,-1,-1,-1,-1,-1,-1,-1,-1,-1,-1,-1,-1,-1,-1,-1,-1],"split_conditions":[1.76E2,1.466E4,1.051416E6,1.489551E4,8E0,-2.9462528E-1,2.0060702E-1,4E0,1.124023E5,1.591862E4,2.6342338E4,3.7165E2,1E0,4.130317E4,3.3714932E3,1.7160946E-1,3.9449236E0,1.01E2,2.6295889E4,2.355963E1,5.20354E3,2.886977E-1,8.814914E-2,1.0119909E4,1.1006829E4,4E0,7.8227077E0,2.912992E4,-5.165899E-1,1.5E1,-2.7016861E-2,7.900342E4,5.241515E4,-4.0544882E-1,2.3815872E-1,-2.299843E-1,2.945488E-1,-2.736073E-1,-5.4072446E-1,-2.4956003E-1,-4.8824217E-2,2.3403035E-1,-1.9014911E-1,-3.069359E-1,-8.0190755E-2,-2.9128474E-1,1.5840131E-1,2.7019945E-1,3.5566516E-2,-1.0035915E0,-1.0658004E-1,2.3864223E-1,4.7362883E-2],"split_indices":[4,3,2,2,1,0,0,0,6,2,2,6,9,2,5,0,8,1,3,5,3,0,0,3,3,0,8,3,0,11,0,2,6,0,0,0,0,0,0,0,0,0,0,0,0,0,0,0,0,0,0,0,0],"split_type":[0,0,0,0,0,0,0,0,0,0,0,0,0,0,0,0,0,0,0,0,0,0,0,0,0,0,0,0,0,0,0,0,0,0,0,0,0,0,0,0,0,0,0,0,0,0,0,0,0,0,0,0,0],"sum_hessian":[2.925414E2,2.546053E2,3.7936115E1,1.0399553E2,1.5060977E2,3.600316E1,1.9329551E0,6.797565E1,3.601988E1,9.247911E0,1.4136186E2,4.9702618E1,1.8273031E1,1.8067823E1,1.7952055E1,1.2108656E0,8.037046E0,4.456798E1,9.6793884E1,2.9397787E1,2.0304832E1,1.6905909E1,1.3671223E0,1.4309972E1,3.7578516E0,5.7250857E0,1.222697E1,4.7889795E0,3.2480667E0,4.3540413E1,1.027567E0,9.057859E0,8.773602E1,2.1534372E1,7.8634152E0,2.7911346E0,1.7513699E1,5.231733E0,9.078239E0,2.7472246E0,1.0106272E0,4.6142335E0,1.110852E0,1.0320253E1,1.9067158E0,2.1664908E0,2.6224885E0,4.2087433E1,1.4529783E0,3.9339406E0,5.123919E0,4.3938976E1,4.3797047E1],"tree_param":{"num_deleted":"0","num_feature":"12","num_nodes":"53","size_leaf_vector":"1"}},{"base_weights":[-2.1350494E-2,9.3780465E-2,-8.6418384E-1,-2.4400173E-1,3.0725563E-1,-2.9128084E-1,1.8637203E-1,1.35312E-1,-9.0002507E-1,7.050519E-1,1.4021292E-1,-1.5412761E-1,8.909109E-1,-3.915954E-1,-4.7075698E-1,-3.3368152E-1,7.923446E-1,-1.4959928E0,3.4429562E-1,8.4520036E-1,-6.313934E-1,2.7999833E-1,7.503815E-2,3.9596713E-1,-9.281626E-1,-3.9298218E-1,1.9058616E-1,9.0456265E-1,4.5845762E-1,-7.816786E-1,-7.615374E-1,6.828823E-1,6.1381772E-2,-7.31203E-2,2.86888E-1,-2.7542317E-1,1.067235E-1,2.0877561E-1,-1.7841272E-1,-3.1087008E-1,-6.288758E-2,2.8026196E-1,4.385633E-2,-4.2695943E-1,2.4721764E-1,-3.2772747E-1,7.910749E-2,2.2229536E-1,-1.8207318E-1,1.2202279E-1,-3.900806E-1],"categories":[],"categories_nodes":[],"categories_segments":[],"categories_sizes":[],"default_left":[0,0,0,0,0,0,0,0,0,0,0,0,0,0,0,0,0,0,0,0,0,0,0,0,0,0,0,0,0,0,0,0,0,0,0,0,0,0,0,0,0,0,0,0,0,0,0,0,0,0,0],"id":14,"left_children":[1,3,5,7,9,-1,-1,11,13,15,17,19,21,-1,23,25,27,29,31,33,35,-1,-1,37,39,-1,-1,41,43,-1,45,47,49,-1,-1,-1,-1,-1,-1,-1,-1,-1,-1,-1,-1,-1,-1,-1,-1,-1,-1],"loss_changes":[2.3846966E1,1.5678099E1,5.2862835E0,2.111203E1,8.741009E0,0E0,0E0,1.2016679E1,4.7849274E0,3.8092022E0,3.2216972E1,1.9671701E1,1.7945862E-1,0E0,6.962653E0,4.36475E0,9.476299E-1,6.748354E0,8.121648E0,1.8537865E0,8.173827E0,0E0,0E0,2.3297973E0,6.515713E-1,0E0,0E0,4.521122E-1,8.859798E0,0E0,2.954677E0,3.3495502E0,2.2879055E1,0E0,0E0,0E0,0E0,0E0,0E0,0E0,0E0,0E0,0E0,0E0,0E0,0E0,0E0,0E0,0E0,0E0,0E0],"parents":[2147483647,0,0,1,1,2,2,3,3,4,4,7,7,8,8,9,9,10,10,11,11,12,12,14,14,15,15,16,16,17,17,18,18,19,19,20,20,23,23,24,24,27,27,28,28,30,30,31,31,32,32],"right_children":[2,4,6,8,10,-1,-1,12,14,16,18,20,22,-1,24,26,28,30,32,34,36,-1,-1,38,40,-1,-1,42,44,-1,46,48,50,-1,-1,-1,-1,-1,-1,-1,-1,-1,-1,-1,-1,-1,-1,-1,-1,-1,-1],"split_conditions":[1.76E2,1.466E4,1.051416E6,1.489551E4,2.6342338E4,-2.9128084E-1,1.8637203E-1,4E0,1.000271E5,8E0,2.4771105E4,2E0,1E0,-3.915954E-1,3.3714932E3,4E0,2.099764E4,5.2856514E3,5.241515E4,7.2811847E2,3.7165E2,2.7999833E-1,7.503815E-2,4E0,9.214987E6,-3.9298218E-1,1.9058616E-1,7.271653E0,2.0939E4,-7.816786E-1,6.7912974E0,9.4E1,4E0,-7.31203E-2,2.86888E-1,-2.7542317E-1,1.067235E-1,2.0877561E-1,-1.7841272E-1,-3.1087008E-1,-6.288758E-2,2.8026196E-1,4.385633E-2,-4.2695943E-1,2.4721764E-1,-3.2772747E-1,7.910749E-2,2.2229536E-1,-1.8207318E-1,1.2202279E-1,-3.900806E-1],"split_indices":[4,3,2,2,2,0,0,0,6,1,3,0,9,0,5,0,2,6,6,3,6,0,0,0,6,0,0,8,3,0,8,1,0,0,0,0,0,0,0,0,0,0,0,0,0,0,0,0,0,0,0],"split_type":[0,0,0,0,0,0,0,0,0,0,0,0,0,0,0,0,0,0,0,0,0,0,0,0,0,0,0,0,0,0,0,0,0,0,0,0,0,0,0,0,0,0,0,0,0,0,0,0,0,0,0],"sum_hessian":[2.4391808E2,2.1538521E2,2.853287E1,8.335284E1,1.3203238E2,2.694293E1,1.5899383E0,5.3318016E1,3.003482E1,3.80941E1,9.393827E1,3.9126316E1,1.41917E1,1.4399118E1,1.5635702E1,2.7343493E0,3.5359753E1,9.71547E0,8.42228E1,1.239726E1,2.6729053E1,1.2882407E1,1.3092934E0,5.447575E0,1.01881275E1,1.1867642E0,1.5475849E0,2.518574E1,1.0174013E1,2.8548121E0,6.860658E0,3.769559E1,4.652721E1,1.0371479E0,1.1360112E1,2.0767685E1,5.9613695E0,4.409901E0,1.0376743E0,8.471791E0,1.7163358E0,2.401517E1,1.1705718E0,1.1845703E0,8.989443E0,5.1371326E0,1.7235256E0,3.6477848E1,1.2177415E0,3.7673275E1,8.853937E0],"tree_param":{"num_deleted":"0","num_feature":"12","num_nodes":"51","size_leaf_vector":"1"}},{"base_weights":[-2.4088684E-2,6.148315E-1,-1.5439746E-1,8.222054E-1,3.101281E-1,-4.9405035E-2,-9.274359E-1,2.7986252E-1,2.2211918E-1,-1.0191355E-1,6.233541E-1,-1.6540577E-1,7.5182414E-1,-2.8605202E-1,-6.8896115E-2,-9.449032E-2,1.9417728E-1,3.862817E-1,-2.6520324E-1,7.561103E-1,-6.629585E-2,1.8415798E-1,-4.7641155E-1,8.755256E-1,-9.879419E-2,1.02107614E-1,1.7890865E-1,1.0823605E-2,2.5892714E-1,3.2009777E-1,-5.30062E-1,-3.1678516E-1,-1.2308643E0,2.8552952E-1,1.8921876E-2,1.0126892E-1,-7.312972E-2,-8.643098E-2,1.2673895E-1,-1.5422167E-3,-2.784292E-1,-1.7215307E-1,1.1513106E-1,-2.02815E-1,-4.1869006E-1],"categories":[],"categories_nodes":[],"categories_segments":[],"categories_sizes":[],"default_left":[0,0,0,0,0,0,0,0,0,0,0,0,0,0,0,0,0,0,0,0,0,0,0,0,0,0,0,0,0,0,0,0,0,0,0,0,0,0,0,0,0,0,0,0,0],"id":15,"left_children":[1,3,5,7,9,11,13,-1,15,17,19,21,23,-1,-1,-1,-1,25,-1,27,-1,29,31,33,-1,35,-1,-1,-1,37,39,41,43,-1,-1,-1,-1,-1,-1,-1,-1,-1,-1,-1,-1],"loss_changes":[1.724393E1,1.9624901E0,1.3904779E1,1.1393614E0,2.1049476E0,1.42876215E1,1.5390205E-1,0E0,1.2244513E0,3.2778785E0,1.1901166E0,1.4648539E1,2.8898544E0,0E0,0E0,0E0,0E0,2.6332778E-1,0E0,5.937867E-1,0E0,6.362058E0,8.179274E0,1.0380917E0,0E0,3.68537E-1,0E0,0E0,0E0,3.4964151E0,2.2046895E0,1.1038822E1,1.6072083E-1,0E0,0E0,0E0,0E0,0E0,0E0,0E0,0E0,0E0,0E0,0E0,0E0],"parents":[2147483647,0,0,1,1,2,2,3,3,4,4,5,5,6,6,8,8,9,9,10,10,11,11,12,12,17,17,19,19,21,21,22,22,23,23,25,25,29,29,30,30,31,31,32,32],"right_children":[2,4,6,8,10,12,14,-1,16,18,20,22,24,-1,-1,-1,-1,26,-1,28,-1,30,32,34,-1,36,-1,-1,-1,38,40,42,44,-1,-1,-1,-1,-1,-1,-1,-1,-1,-1,-1,-1],"split_conditions":[2E0,3E0,1.76E2,1.1760825E5,1.7310445E4,1.5643952E5,3.4053572E5,2.7986252E-1,3.8034503E5,1E0,9.376E3,1E0,1.4E1,-2.8605202E-1,-6.8896115E-2,-9.449032E-2,1.9417728E-1,4E0,-2.6520324E-1,1.985846E4,-6.629585E-2,7.8E1,1.478499E5,6.6186156E0,-9.879419E-2,5.3E1,1.7890865E-1,1.0823605E-2,2.5892714E-1,6.966E3,1.8966203E4,4E0,3.6E1,2.8552952E-1,1.8921876E-2,1.0126892E-1,-7.312972E-2,-8.643098E-2,1.2673895E-1,-1.5422167E-3,-2.784292E-1,-1.7215307E-1,1.1513106E-1,-2.02815E-1,-4.1869006E-1],"split_indices":[7,0,4,5,3,3,2,0,2,9,5,9,7,0,0,0,0,0,0,2,0,1,2,8,0,1,0,0,0,3,2,0,1,0,0,0,0,0,0,0,0,0,0,0,0],"split_type":[0,0,0,0,0,0,0,0,0,0,0,0,0,0,0,0,0,0,0,0,0,0,0,0,0,0,0,0,0,0,0,0,0,0,0,0,0,0,0,0,0,0,0,0,0],"sum_hessian":[2.0497693E2,3.4093582E1,1.7088335E2,1.9276245E1,1.4817335E1,1.5138629E2,1.9497053E1,1.5806582E1,3.4696634E0,6.690615E0,8.126719E0,1.3293388E2,1.8452404E1,1.8441551E1,1.0555015E0,1.6474913E0,1.822172E0,4.4308906E0,2.2597244E0,7.112856E0,1.0138639E0,6.2779247E1,7.015464E1,1.6728542E1,1.7238616E0,2.5149624E0,1.9159282E0,1.0930833E0,6.0197725E0,5.3204487E1,9.574759E0,5.9075413E1,1.1079232E1,1.5136667E1,1.5918751E0,1.5106232E0,1.0043392E0,7.403332E0,4.5801155E1,4.5660524E0,5.0087066E0,4.334974E1,1.5725672E1,3.7053852E0,7.373847E0],"tree_param":{"num_deleted":"0","num_feature":"12","num_nodes":"45","size_leaf_vector":"1"}},{"base_weights":[-1.8950326E-2,6.5107085E-2,-8.185462E-1,4.6451685E-1,-8.545133E-2,-2.8307587E-1,1.6096497E-1,7.2365445E-1,1.258817E-1,-7.935408E-1,2.1703864E-2,2.9019943E-1,1.18190326E-1,3.201202E-1,-6.418873E-1,-3.6218506E-1,2.973175E-1,1.1843372E-1,-8.703104E-1,-2.8701597E-1,2.1345471E-1,-4.1671813E-1,2.719143E-1,-2.4582675E-1,-9.885692E-3,5.890571E-1,-1.2863097E-1,-7.4443257E-1,1.9456105E-1,-2.424253E-1,-3.7870446E-1,1.798383E-1,-3.737531E-1,-2.2985375E-1,1.9250144E-1,2.091024E-1,3.737187E-2,-2.0283066E-2,-2.5281563E-1,1.4957401E-1,-6.4944373E-3,6.620166E-2,-2.9335123E-1],"categories":[],"categories_nodes":[],"categories_segments":[],"categories_sizes":[],"default_left":[0,0,0,0,0,0,0,0,0,0,0,0,0,0,0,0,0,0,0,0,0,0,0,0,0,0,0,0,0,0,0,0,0,0,0,0,0,0,0,0,0,0,0],"id":16,"left_children":[1,3,5,7,9,-1,-1,11,13,15,17,-1,19,21,23,-1,25,27,29,31,-1,33,-1,-1,-1,35,-1,37,39,41,-1,-1,-1,-1,-1,-1,-1,-1,-1,-1,-1,-1,-1],"loss_changes":[1.2537539E1,1.0202534E1,3.5126095E0,3.9824944E0,9.3939705E0,0E0,0E0,3.7344408E0,3.3870783E0,7.702159E0,9.4486065E0,0E0,2.2778928E0,8.021139E0,4.7465658E-1,0E0,1.3702613E0,6.6213064E0,2.3317528E0,5.708729E0,0E0,3.644811E0,0E0,0E0,0E0,1.2302828E-1,0E0,4.8854685E-1,6.0182905E0,2.0400925E0,0E0,0E0,0E0,0E0,0E0,0E0,0E0,0E0,0E0,0E0,0E0,0E0,0E0],"parents":[2147483647,0,0,1,1,2,2,3,3,4,4,7,7,8,8,9,9,10,10,12,12,13,13,14,14,16,16,17,17,18,18,19,19,21,21,25,25,27,27,28,28,29,29],"right_children":[2,4,6,8,10,-1,-1,12,14,16,18,-1,20,22,24,-1,26,28,30,32,-1,34,-1,-1,-1,36,-1,38,40,42,-1,-1,-1,-1,-1,-1,-1,-1,-1,-1,-1,-1,-1],"split_conditions":[1.76E2,4E0,1.051416E6,3E0,1.8046191E0,-2.8307587E-1,1.6096497E-1,5.091573E4,7.9272016E4,7.7266E4,7.469982E0,2.9019943E-1,3.8034503E5,4E0,1.2858383E5,-3.6218506E-1,2.69737E5,4.398355E3,8E0,2.9875121E4,2.1345471E-1,2.355963E1,2.719143E-1,-2.4582675E-1,-9.885692E-3,4.4E1,-1.2863097E-1,6E0,1.8966203E4,4.4E1,-3.7870446E-1,1.798383E-1,-3.737531E-1,-2.2985375E-1,1.9250144E-1,2.091024E-1,3.737187E-2,-2.0283066E-2,-2.5281563E-1,1.4957401E-1,-6.4944373E-3,6.620166E-2,-2.9335123E-1],"split_indices":[4,7,2,0,8,0,0,5,6,3,8,0,2,0,3,0,2,3,7,2,0,5,0,0,0,1,0,7,2,1,0,0,0,0,0,0,0,0,0,0,0,0,0],"split_type":[0,0,0,0,0,0,0,0,0,0,0,0,0,0,0,0,0,0,0,0,0,0,0,0,0,0,0,0,0,0,0,0,0,0,0,0,0,0,0,0,0,0,0],"sum_hessian":[1.8474442E2,1.6800182E2,1.6742596E1,4.5421043E1,1.2258077E2,1.5606223E1,1.1363724E0,2.5086697E1,2.0334349E1,1.5269994E1,1.0731078E2,1.7461441E1,7.6252546E0,1.6693977E1,3.640371E0,1.0993595E1,4.2763987E0,9.759484E1,9.715938E0,4.83767E0,2.7875853E0,7.5251865E0,9.168791E0,2.5509698E0,1.089401E0,3.1852853E0,1.0911133E0,7.2006125E0,9.039423E1,4.3566794E0,5.3592577E0,2.708419E0,2.1292505E0,5.864819E0,1.660367E0,2.178397E0,1.0068885E0,1.1270896E0,6.073523E0,3.702547E1,5.336876E1,3.102766E0,1.2539135E0],"tree_param":{"num_deleted":"0","num_feature":"12","num_nodes":"43","size_leaf_vector":"1"}},{"base_weights":[-2.019228E-2,4.9016953E-2,-7.8831786E-1,-4.1806817E-2,7.1436656E-1,-2.7730554E-1,1.4064519E-1,6.2199377E-2,-6.798896E-1,8.323681E-1,-7.221887E-2,-1.0408087E-1,5.4299366E-1,-1.1226256E0,4.7711697E-1,2.7568078E-1,3.3510346E-2,-8.6901885E-1,4.3741906E-1,9.0574354E-1,-3.639989E-1,-6.479416E-1,-3.795475E-1,8.5183895E-1,-1.882476E-1,-4.9536112E-1,2.2141154E-1,2.4996893E-1,-9.888088E-2,2.8071743E-1,9.911875E-2,-2.96457E-2,-2.884608E-1,7.060353E-4,3.2933444E-1],"categories":[],"categories_nodes":[],"categories_segments":[],"categories_sizes":[],"default_left":[0,0,0,0,0,0,0,0,0,0,0,0,0,0,0,0,0,0,0,0,0,0,0,0,0,0,0,0,0,0,0,0,0,0,0],"id":17,"left_children":[1,3,5,7,9,-1,-1,11,13,15,-1,17,19,21,23,-1,-1,25,27,29,-1,31,-1,33,-1,-1,-1,-1,-1,-1,-1,-1,-1,-1,-1],"loss_changes":[8.845991E0,9.270751E0,2.7851257E0,9.034519E0,2.276637E0,0E0,0E0,9.444104E0,1.030637E1,9.3428135E-1,0E0,3.6867348E1,2.0425816E1,1.3379669E-1,3.0100331E0,0E0,0E0,4.7534637E1,1.6135033E1,1.3441467E-1,0E0,8.184068E-1,0E0,1.0190325E0,0E0,0E0,0E0,0E0,0E0,0E0,0E0,0E0,0E0,0E0,0E0],"parents":[2147483647,0,0,1,1,2,2,3,3,4,4,7,7,8,8,9,9,11,11,12,12,13,13,14,14,17,17,18,18,19,19,21,21,23,23],"right_children":[2,4,6,8,10,-1,-1,12,14,16,-1,18,20,22,24,-1,-1,26,28,30,-1,32,-1,34,-1,-1,-1,-1,-1,-1,-1,-1,-1,-1,-1],"split_conditions":[1.76E2,1.5643952E5,6.603158E5,1.478499E5,1.4E1,-2.7730554E-1,1.4064519E-1,4E0,7.2550665E6,6.6186156E0,-7.221887E-2,3.7165E2,3.7165E2,2.0892958E5,4E1,2.7568078E-1,3.3510346E-2,2.355963E1,4.46444E4,9.50271E4,-3.639989E-1,1E0,-3.795475E-1,2.7E1,-1.882476E-1,-4.9536112E-1,2.2141154E-1,2.4996893E-1,-9.888088E-2,2.8071743E-1,9.911875E-2,-2.96457E-2,-2.884608E-1,7.060353E-4,3.2933444E-1],"split_indices":[4,3,2,2,7,0,0,0,6,8,0,6,6,2,1,0,0,5,5,2,0,10,0,1,0,0,0,0,0,0,0,0,0,0,0],"split_type":[0,0,0,0,0,0,0,0,0,0,0,0,0,0,0,0,0,0,0,0,0,0,0,0,0,0,0,0,0,0,0,0,0,0,0],"sum_hessian":[1.6467195E2,1.5191994E2,1.2752021E1,1.3449748E2,1.7422457E1,1.1745737E1,1.006284E0,1.1642325E2,1.807423E1,1.5620992E1,1.8014657E0,8.7087875E1,2.9335373E1,1.3093596E1,4.980633E0,1.3700182E1,1.9208096E0,3.584599E1,5.1241886E1,2.471504E1,4.6203327E0,4.304388E0,8.789208E0,3.8898814E0,1.0907515E0,2.4092333E1,1.1753657E1,3.374299E1,1.74989E1,2.2895594E1,1.8194462E0,2.0426688E0,2.2617192E0,1.100011E0,2.7898703E0],"tree_param":{"num_deleted":"0","num_feature":"12","num_nodes":"35","size_leaf_vector":"1"}},{"base_weights":[-2.0522976E-2,5.539374E-1,-1.15068614E-1,-1.9361708E-2,6.2265295E-1,7.358801E-2,-3.6718115E-1,6.940673E-1,-1.7122954E-2,-5.200537E-1,2.0409559E-1,-1.4079224E-1,-6.5389985E-1,2.5666907E-1,4.027993E-1,-1.1408713E0,3.902525E-1,2.8845343E-1,-2.9330778E-1,-2.7713645E-1,-2.1416085E-2,2.106842E-1,-8.0318075E-1,5.953814E-1,-2.0578768E-2,-3.9989263E-1,-6.5346904E-2,1.9730492E-1,-1.2701587E-1,3.3222678E-1,-2.2997491E-1,1.9000332E-1,-3.6691543E-1,1.1918036E-1,-4.3972887E-2,-3.4805873E-1,-1.079112E0,2.5521332E-2,2.1072146E-1,-9.0261236E-2,6.776738E-2,1.5726085E-1,2.3353765E-2,-8.048387E-2,2.1113335E-1,8.939433E-2,-2.22636E-1,1.2767859E-1,-1.7456916E-1,-1.1654872E-1,-3.9665285E-1],"categories":[],"categories_nodes":[],"categories_segments":[],"categories_sizes":[],"default_left":[0,0,0,0,0,0,0,0,0,0,0,0,0,0,0,0,0,0,0,0,0,0,0,0,0,0,0,0,0,0,0,0,0,0,0,0,0,0,0,0,0,0,0,0,0,0,0,0,0,0,0],"id":18,"left_children":[1,3,5,-1,7,9,11,13,-1,15,17,19,21,-1,23,25,27,29,-1,-1,31,33,35,37,39,-1,-1,-1,-1,41,-1,43,45,-1,-1,47,49,-1,-1,-1,-1,-1,-1,-1,-1,-1,-1,-1,-1,-1,-1],"loss_changes":[7.561081E0,8.765726E-1,5.704105E0,0E0,9.039712E-1,5.4600296E0,3.234899E0,4.1690207E-1,0E0,7.6428175E0,6.0013027E0,2.7764144E0,3.0525389E0,0E0,6.371522E-1,1.0975266E0,1.5642384E0,2.7632575E0,0E0,0E0,2.040575E0,3.3029962E-1,2.042923E0,2.2978055E-1,3.0028018E-1,0E0,0E0,0E0,0E0,2.5402503E0,0E0,4.2851048E0,2.8615317E0,0E0,0E0,1.8297232E0,1.4190149E0,0E0,0E0,0E0,0E0,0E0,0E0,0E0,0E0,0E0,0E0,0E0,0E0,0E0,0E0],"parents":[2147483647,0,0,1,1,2,2,4,4,5,5,6,6,7,7,9,9,10,10,11,11,12,12,14,14,15,15,16,16,17,17,20,20,21,21,22,22,23,23,24,24,29,29,31,31,32,32,35,35,36,36],"right_children":[2,4,6,-1,8,10,12,14,-1,16,18,20,22,-1,24,26,28,30,-1,-1,32,34,36,38,40,-1,-1,-1,-1,42,-1,44,46,-1,-1,48,50,-1,-1,-1,-1,-1,-1,-1,-1,-1,-1,-1,-1,-1,-1],"split_conditions":[2E0,9.932667E-1,9E0,-1.9361708E-2,1.47338E5,2.4386322E0,4.4E1,3E0,-1.7122954E-2,7.475202E4,7.6153016E0,1.011947E4,4E0,2.5666907E-1,1.1E1,4E0,1.3E1,1.9E1,-2.9330778E-1,-2.7713645E-1,1.699722E4,1E0,1.8966203E4,9.90387E3,1.4E1,-3.9989263E-1,-6.5346904E-2,1.9730492E-1,-1.2701587E-1,3.47952E4,-2.2997491E-1,4E0,1.1E1,1.1918036E-1,-4.3972887E-2,2E0,1E0,2.5521332E-2,2.1072146E-1,-9.0261236E-2,6.776738E-2,1.5726085E-1,2.3353765E-2,-8.048387E-2,2.1113335E-1,8.939433E-2,-2.22636E-1,1.2767859E-1,-1.7456916E-1,-1.1654872E-1,-3.9665285E-1],"split_indices":[7,8,11,0,5,8,1,0,0,3,8,2,7,0,11,0,7,7,0,0,6,9,2,2,11,0,0,0,0,2,0,0,11,0,0,0,9,0,0,0,0,0,0,0,0,0,0,0,0,0,0],"split_type":[0,0,0,0,0,0,0,0,0,0,0,0,0,0,0,0,0,0,0,0,0,0,0,0,0,0,0,0,0,0,0,0,0,0,0,0,0,0,0,0,0,0,0,0,0,0,0,0,0,0,0],"sum_hessian":[1.3704022E2,1.8680197E1,1.1836002E2,1.8739985E0,1.6806198E1,6.810497E1,5.025506E1,1.5189276E1,1.6169224E0,1.1736072E1,5.6368896E1,2.8915134E1,2.1339922E1,8.525085E0,6.664191E0,6.8269157E0,4.9091563E0,5.3318836E1,3.0500627E0,2.9337847E0,2.598135E1,3.0815146E0,1.8258408E1,4.301364E0,2.3628266E0,5.283265E0,1.5436506E0,3.8390098E0,1.0701466E0,5.185258E1,1.4662538E0,1.6397429E1,9.583921E0,1.9507354E0,1.1307791E0,7.7450676E0,1.0513341E1,1.0568699E0,3.2444942E0,1.002284E0,1.3605425E0,2.8946531E1,2.290605E1,8.919304E0,7.478124E0,3.5315359E0,6.0523853E0,1.6072952E0,6.1377726E0,3.4133463E0,7.099994E0],"tree_param":{"num_deleted":"0","num_feature":"12","num_nodes":"51","size_leaf_vector":"1"}},{"base_weights":[-2.3456564E-2,3.682257E-2,-7.4339545E-1,-4.4346288E-2,7.374838E-1,-2.6669148E-1,7.420563E-2,3.231251E-2,-7.12684E-1,2.5961512E-1,2.3002224E-1,-1.17229424E-1,4.204163E-1,-3.6740142E-1,4.218573E-1,1.4378916E-1,-7.190535E-2,1.258819E-1,-1.023698E0,6.026698E-1,-2.8787827E-1,-5.5914976E-2,2.2461559E-1,-5.9602056E-2,1.9640239E-1,-9.539487E-2,-4.0987384E-1,-1.4514455E-1,2.1360028E-1,-2.5847316E-1,2.01557E-1],"categories":[],"categories_nodes":[],"categories_segments":[],"categories_sizes":[],"default_left":[0,0,0,0,0,0,0,0,0,0,0,0,0,0,0,0,0,0,0,0,0,0,0,0,0,0,0,0,0,0,0],"id":19,"left_children":[1,3,5,7,9,-1,-1,11,13,-1,15,17,19,-1,21,-1,-1,23,25,27,29,-1,-1,-1,-1,-1,-1,-1,-1,-1,-1],"loss_changes":[5.563941E0,6.781963E0,1.6483111E0,5.5202985E0,6.0429E-1,0E0,0E0,5.6913304E0,6.9550567E0,0E0,5.66088E-1,1.5765667E1,3.692099E0,0E0,9.7263944E-1,0E0,0E0,9.885254E0,3.2195244E0,2.9580388E0,4.0228543E0,0E0,0E0,0E0,0E0,0E0,0E0,0E0,0E0,0E0,0E0],"parents":[2147483647,0,0,1,1,2,2,3,3,4,4,7,7,8,8,10,10,11,11,12,12,14,14,17,17,18,18,19,19,20,20],"right_children":[2,4,6,8,10,-1,-1,12,14,-1,16,18,20,-1,22,-1,-1,24,26,28,30,-1,-1,-1,-1,-1,-1,-1,-1,-1,-1],"split_conditions":[1.76E2,2.100494E5,3.8034503E5,2.1422462E5,4E0,-2.6669148E-1,7.420563E-2,3.0642486E4,7.2550665E6,2.5961512E-1,4.227261E0,3.0513145E4,5.5E1,-3.6740142E-1,2E0,1.4378916E-1,-7.190535E-2,3.7165E2,1E0,8E0,1.1118341E5,-5.5914976E-2,2.2461559E-1,-5.9602056E-2,1.9640239E-1,-9.539487E-2,-4.0987384E-1,-1.4514455E-1,2.1360028E-1,-2.5847316E-1,2.01557E-1],"split_indices":[4,3,2,2,0,0,0,3,6,0,8,2,1,0,10,0,0,6,10,1,3,0,0,0,0,0,0,0,0,0,0],"split_type":[0,0,0,0,0,0,0,0,0,0,0,0,0,0,0,0,0,0,0,0,0,0,0,0,0,0,0,0,0,0,0],"sum_hessian":[1.2657864E2,1.17674805E2,8.903838E0,1.0629738E2,1.1377426E1,7.85272E0,1.051118E0,9.62133E1,1.008408E1,8.523786E0,2.8536413E0,6.995614E1,2.6257158E1,6.8936996E0,3.1903799E0,1.8509291E0,1.0027122E0,5.5840946E1,1.4115195E1,2.1002155E1,5.2550044E0,1.2654128E0,1.924967E0,3.498971E1,2.0851234E1,5.242639E0,8.872557E0,1.6070244E0,1.939513E1,3.3529775E0,1.9020269E0],"tree_param":{"num_deleted":"0","num_feature":"12","num_nodes":"31","size_leaf_vector":"1"}},{"base_weights":[-2.1134133E-2,3.520567E-1,-1.3644032E-1,4.5445323E-1,-2.3874825E-1,-4.2142298E-2,-5.613861E-1,7.8599834E-1,1.8845068E-1,-5.158986E-1,6.7822225E-2,4.6667448E-1,-1.4213799E-1,-7.00865E-1,7.831817E-2,2.660773E-1,4.723109E-2,-1.0313324E-1,4.9882275E-1,-2.2220416E-1,-6.6834427E-3,-2.6903406E-1,8.0744785E-1,-1.32074915E-2,-5.646726E-1,-2.4516197E-1,-3.299576E-1,1.3848734E-1,-1.2242924E-1,-4.0288693E-1,4.4621783E-1,2.5021762E-1,-1.9178198E-1,5.0328095E-2,-1.6928484E-1,6.9839954E-2,2.7119473E-1,-2.3492497E-1,4.1910723E-1,-8.8657874E-1,3.4831533E-1,1.8180087E-1,-6.7482156E-1,-2.3582824E-1,1.6852082E-1,1.787769E-1,1.3150179E-2,-2.467674E-1,1.7685169E-1,2.605929E-1,-3.483634E-1,-2.9795358E-1,-2.315246E-2,2.304666E-1,-6.8476595E-2,-4.795169E-2,-2.604769E-1],"categories":[],"categories_nodes":[],"categories_segments":[],"categories_sizes":[],"default_left":[0,0,0,0,0,0,0,0,0,0,0,0,0,0,0,0,0,0,0,0,0,0,0,0,0,0,0,0,0,0,0,0,0,0,0,0,0,0,0,0,0,0,0,0,0,0,0,0,0,0,0,0,0,0,0,0,0],"id":20,"left_children":[1,3,5,7,9,11,13,15,17,19,-1,21,23,25,27,-1,-1,29,31,-1,-1,33,35,37,39,41,-1,-1,-1,43,45,-1,-1,-1,-1,-1,-1,47,49,51,53,-1,55,-1,-1,-1,-1,-1,-1,-1,-1,-1,-1,-1,-1,-1,-1],"loss_changes":[5.0336647E0,1.7798576E0,3.5520613E0,1.9588542E0,7.2682416E-1,3.8369682E0,1.4935751E0,5.150347E-1,1.370116E0,3.465513E-1,0E0,3.327459E0,3.4084773E0,2.1555743E0,8.942398E-1,0E0,0E0,1.5533831E0,3.2914479E0,0E0,0E0,6.978563E-1,2.737484E-1,4.801672E0,4.610245E0,3.1567235E0,0E0,0E0,0E0,2.6307664E0,1.7985082E-1,0E0,0E0,0E0,0E0,0E0,0E0,1.6508232E1,1.3080778E1,8.8132095E-1,1.2728534E0,0E0,4.0573764E-1,0E0,0E0,0E0,0E0,0E0,0E0,0E0,0E0,0E0,0E0,0E0,0E0,0E0,0E0],"parents":[2147483647,0,0,1,1,2,2,3,3,4,4,5,5,6,6,7,7,8,8,9,9,11,11,12,12,13,13,14,14,17,17,18,18,21,21,22,22,23,23,24,24,25,25,29,29,30,30,37,37,38,38,39,39,40,40,42,42],"right_children":[2,4,6,8,10,12,14,16,18,20,-1,22,24,26,28,-1,-1,30,32,-1,-1,34,36,38,40,42,-1,-1,-1,44,46,-1,-1,-1,-1,-1,-1,48,50,52,54,-1,56,-1,-1,-1,-1,-1,-1,-1,-1,-1,-1,-1,-1,-1,-1],"split_conditions":[4E0,1.1760825E5,7.8E1,2E0,3.8034503E5,5E0,1.3684842E5,5.956E4,4E0,7.9E1,6.7822225E-2,4.3E1,3.450595E4,1.8707936E4,1E0,2.660773E-1,4.723109E-2,3.7165E2,3.7165E2,-2.2220416E-1,-6.6834427E-3,1E0,6.198675E4,4E0,9.513946E6,2E0,-3.299576E-1,1.3848734E-1,-1.2242924E-1,2.355963E1,2.013633E3,2.5021762E-1,-1.9178198E-1,5.0328095E-2,-1.6928484E-1,6.9839954E-2,2.7119473E-1,3.7165E2,3.7165E2,3.8034503E5,8.528231E6,1.8180087E-1,9E0,-2.3582824E-1,1.6852082E-1,1.787769E-1,1.3150179E-2,-2.467674E-1,1.7685169E-1,2.605929E-1,-3.483634E-1,-2.9795358E-1,-2.315246E-2,2.304666E-1,-6.8476595E-2,-4.795169E-2,-2.604769E-1],"split_indices":[7,5,1,0,2,11,3,5,0,1,0,1,5,2,10,0,0,6,6,0,0,9,6,0,6,0,0,0,0,5,5,0,0,0,0,0,0,6,6,2,5,0,7,0,0,0,0,0,0,0,0,0,0,0,0,0,0],"split_type":[0,0,0,0,0,0,0,0,0,0,0,0,0,0,0,0,0,0,0,0,0,0,0,0,0,0,0,0,0,0,0,0,0,0,0,0,0,0,0,0,0,0,0,0,0,0,0,0,0,0,0,0,0,0,0,0,0],"sum_hessian":[1.1486076E2,2.6627401E1,8.823336E1,2.2890823E1,3.7365785E0,7.310917E1,1.5124193E1,9.319796E0,1.3571029E1,2.2720094E0,1.4645691E0,1.1405684E1,6.1703484E1,1.2338371E1,2.7858224E0,7.6762133E0,1.643582E0,7.3415785E0,6.22945E0,1.2172151E0,1.0547942E0,3.67725E0,7.728434E0,4.8067593E1,1.3635893E1,6.513524E0,5.824847E0,1.5865517E0,1.1992708E0,4.922323E0,2.4192553E0,5.0183873E0,1.2110633E0,1.6572682E0,2.0199816E0,1.6022385E0,6.1261954E0,3.207444E1,1.5993151E1,1.010274E1,3.533152E0,2.047318E0,4.466206E0,3.6552937E0,1.2670294E0,1.4126891E0,1.0065662E0,1.8727926E1,1.3346515E1,1.2801878E1,3.1912727E0,8.726409E0,1.3763319E0,1.8519845E0,1.6811677E0,1.7181864E0,2.7480197E0],"tree_param":{"num_deleted":"0","num_feature":"12","num_nodes":"57","size_leaf_vector":"1"}},{"base_weights":[-1.348936E-2,4.7159314E-1,-8.6814314E-2,5.775363E-1,-2.5440572E-2,-3.4195777E-2,-7.673287E-1,2.8095528E-1,2.2224072E-1,9.119348E-2,-9.046924E-2,2.671472E-2,-6.062242E-1,-6.5761626E-2,-2.5848252E-1,4.9755985E-1,-7.345232E-2,-4.028853E-1,1.3260737E-1,-2.0463802E-1,-2.785189E-1,3.315505E-2,1.7513348E-1,-1.1444763E-1,-8.165437E-1,3.3356512E-1,-4.371512E-2,-1.7556791E-1,4.2510603E-2,-1.08719036E-1,1.2377294E-1,-2.9212216E-1,-4.9141224E-2,2.0809563E-1,3.1446193E-3,-9.1440864E-2,8.847391E-2,1.5348488E-1,-1.1316923E-1],"categories":[],"categories_nodes":[],"categories_segments":[],"categories_sizes":[],"default_left":[0,0,0,0,0,0,0,0,0,0,0,0,0,0,0,0,0,0,0,0,0,0,0,0,0,0,0,0,0,0,0,0,0,0,0,0,0,0,0],"id":21,"left_children":[1,3,5,7,9,11,13,15,-1,-1,-1,17,19,-1,-1,21,-1,23,25,27,-1,-1,-1,29,31,33,35,-1,37,-1,-1,-1,-1,-1,-1,-1,-1,-1,-1],"loss_changes":[3.6879287E0,7.3184705E-1,3.1933892E0,3.3750868E-1,3.9645106E-1,2.9606607E0,1.4220977E-1,7.609513E-1,0E0,0E0,0E0,3.571419E0,8.6766434E-1,0E0,0E0,7.9117775E-2,0E0,1.7607098E0,2.2395468E0,4.87817E-1,0E0,0E0,0E0,1.4979357E0,4.7884798E-1,3.4203057E0,3.1251233E0,0E0,9.6410954E-1,0E0,0E0,0E0,0E0,0E0,0E0,0E0,0E0,0E0,0E0],"parents":[2147483647,0,0,1,1,2,2,3,3,4,4,5,5,6,6,7,7,11,11,12,12,15,15,17,17,18,18,19,19,23,23,24,24,25,25,26,26,28,28],"right_children":[2,4,6,8,10,12,14,16,-1,-1,-1,18,20,-1,-1,22,-1,24,26,28,-1,-1,-1,30,32,34,36,-1,38,-1,-1,-1,-1,-1,-1,-1,-1,-1,-1],"split_conditions":[2E0,1.1760825E5,9.8E1,1.6079465E4,1E0,7.4248896E0,5E0,1.591862E4,2.2224072E-1,9.119348E-2,-9.046924E-2,2.4386322E0,8E0,-6.5761626E-2,-2.5848252E-1,1.9192379E3,-7.345232E-2,1.1E1,3E0,2.7587326E4,-2.785189E-1,3.315505E-2,1.7513348E-1,7.475202E4,4E0,1.2444278E4,4E0,-1.7556791E-1,4.0365542E3,-1.08719036E-1,1.2377294E-1,-2.9212216E-1,-4.9141224E-2,2.0809563E-1,3.1446193E-3,-9.1440864E-2,8.847391E-2,1.5348488E-1,-1.1316923E-1],"split_indices":[7,5,1,3,10,8,7,2,0,0,0,8,7,0,0,3,0,7,0,2,0,0,0,3,0,5,0,0,5,0,0,0,0,0,0,0,0,0,0],"split_type":[0,0,0,0,0,0,0,0,0,0,0,0,0,0,0,0,0,0,0,0,0,0,0,0,0,0,0,0,0,0,0,0,0,0,0,0,0,0,0],"sum_hessian":[1.0153376E2,1.2619263E1,8.89145E1,1.0268547E1,2.3507156E0,8.350778E1,5.4067154E0,4.6118073E0,5.6567397E0,1.025912E0,1.3248036E0,7.633302E1,7.174763E0,1.281483E0,4.125232E0,3.30429E0,1.3075173E0,1.4540092E1,6.1792927E1,3.9216387E0,3.2531245E0,1.0176743E0,2.2866158E0,9.318864E0,5.2212286E0,2.8462238E1,3.333069E1,1.0054368E0,2.916202E0,6.549766E0,2.7690983E0,3.8115366E0,1.409692E0,1.2917866E1,1.55443735E1,1.8876495E1,1.4454192E1,1.2737577E0,1.6424443E0],"tree_param":{"num_deleted":"0","num_feature":"12","num_nodes":"39","size_leaf_vector":"1"}},{"base_weights":[-1.3445618E-2,1.9041175E-1,-1.7426416E-1,3.1085888E-1,-1.4524786E-1,-2.7510062E-1,3.0161706E-1,4.624894E-1,-1.3171534E-1,-2.240961E-1,2.4916017E-2,-1.5050073E-1,-1.0303481E0,5.451202E-1,-1.8403393E-1,7.101083E-1,2.1748486E-1,-4.0210792E-1,3.3155474E-1,4.1559717E-1,-3.940009E-1,-6.091956E-1,-2.9857611E-2,-1.03542484E-1,-3.6486042E-1,6.7139614E-1,8.948171E-3,-1.8380223E-2,7.9527146E-1,4.9435008E-1,-1.4653543E-1,3.3253694E-1,-2.6755616E-1,2.191302E-1,-1.1188283E-1,-2.3415817E-2,5.568495E-1,6.565707E-2,-6.099692E-1,-7.5678366E-1,5.598259E-2,1.9962354E-1,-3.3173373E-1,2.4161719E-1,5.6540176E-2,2.6241073E-1,4.761805E-2,1.858961E-1,-5.4654267E-2,-1.6512698E-1,1.21901676E-1,-1.14553E-2,1.5724303E-1,1.9957404E-1,2.9046774E-2,-2.4496415E-1,5.4626805E-3,-2.6657385E-1,-2.356791E-3,1.0856869E-1,-1.3359305E-1,-3.324011E-2,-2.6712954E-1],"categories":[],"categories_nodes":[],"categories_segments":[],"categories_sizes":[],"default_left":[0,0,0,0,0,0,0,0,0,0,0,0,0,0,0,0,0,0,0,0,0,0,0,0,0,0,0,0,0,0,0,0,0,0,0,0,0,0,0,0,0,0,0,0,0,0,0,0,0,0,0,0,0,0,0,0,0,0,0,0,0,0,0],"id":22,"left_children":[1,3,5,7,9,11,13,15,17,-1,19,21,23,25,-1,27,29,31,33,35,37,39,41,-1,-1,43,-1,-1,45,47,49,51,-1,-1,-1,-1,53,-1,55,57,-1,59,61,-1,-1,-1,-1,-1,-1,-1,-1,-1,-1,-1,-1,-1,-1,-1,-1,-1,-1,-1,-1],"loss_changes":[3.2097692E0,1.7919902E0,2.7071953E0,2.216131E0,1.2567213E0,4.1406E0,2.5712514E0,1.310205E0,1.257409E0,0E0,1.8648179E0,2.2149792E0,3.8169336E-1,5.303521E-1,0E0,8.084922E-1,1.440747E0,2.4978886E0,1.3558009E0,4.5241034E-1,8.652981E-1,1.1221824E0,2.352481E0,0E0,0E0,2.8481102E-1,0E0,0E0,3.9140177E-1,7.8598297E-1,1.7055801E0,2.455917E-1,0E0,0E0,0E0,0E0,1.6910696E-1,0E0,5.79661E-1,7.079673E-1,0E0,2.1887267E0,1.7070477E0,0E0,0E0,0E0,0E0,0E0,0E0,0E0,0E0,0E0,0E0,0E0,0E0,0E0,0E0,0E0,0E0,0E0,0E0,0E0,0E0],"parents":[2147483647,0,0,1,1,2,2,3,3,4,4,5,5,6,6,7,7,8,8,10,10,11,11,12,12,13,13,15,15,16,16,17,17,18,18,19,19,20,20,21,21,22,22,25,25,28,28,29,29,30,30,31,31,36,36,38,38,39,39,41,41,42,42],"right_children":[2,4,6,8,10,12,14,16,18,-1,20,22,24,26,-1,28,30,32,34,36,38,40,42,-1,-1,44,-1,-1,46,48,50,52,-1,-1,-1,-1,54,-1,56,58,-1,60,62,-1,-1,-1,-1,-1,-1,-1,-1,-1,-1,-1,-1,-1,-1,-1,-1,-1,-1,-1,-1],"split_conditions":[1E0,1.3E1,1.442936E5,3.866808E4,2.8620887E0,1.3810262E5,1.76E2,3E0,5.971202E6,-2.240961E-1,5.1140733E0,2.4642384E0,3.9E1,1.4E1,-1.8403393E-1,1.4E1,9E0,3.391536E4,7.6658985E6,9E0,6E0,6.9986E4,8E0,-1.03542484E-1,-3.6486042E-1,4E0,8.948171E-3,-1.8380223E-2,8.4E1,7E1,4E0,2.2817666E4,-2.6755616E-1,2.191302E-1,-1.1188283E-1,-2.3415817E-2,4.8E1,6.565707E-2,1.9E1,4E0,5.598259E-2,6.513357E0,7.630446E3,2.4161719E-1,5.6540176E-2,2.6241073E-1,4.761805E-2,1.858961E-1,-5.4654267E-2,-1.6512698E-1,1.21901676E-1,-1.14553E-2,1.5724303E-1,1.9957404E-1,2.9046774E-2,-2.4496415E-1,5.4626805E-3,-2.6657385E-1,-2.356791E-3,1.0856869E-1,-1.3359305E-1,-3.324011E-2,-2.6712954E-1],"split_indices":[9,7,3,5,8,2,4,0,6,0,8,8,1,7,0,1,11,2,5,1,11,3,11,0,0,0,0,0,1,1,0,2,0,0,0,0,1,0,7,0,0,8,5,0,0,0,0,0,0,0,0,0,0,0,0,0,0,0,0,0,0,0,0],"split_type":[0,0,0,0,0,0,0,0,0,0,0,0,0,0,0,0,0,0,0,0,0,0,0,0,0,0,0,0,0,0,0,0,0,0,0,0,0,0,0,0,0,0,0,0,0,0,0,0,0,0,0,0,0,0,0,0,0,0,0,0,0,0,0],"sum_hessian":[9.589431E1,4.2207314E1,5.3686996E1,3.1115723E1,1.109159E1,4.4648212E1,9.038782E0,2.3142027E1,7.973697E0,1.697836E0,9.393754E0,3.935478E1,5.2934346E0,7.458357E0,1.5804254E0,1.0565469E1,1.2576557E1,5.1183434E0,2.8553536E0,4.864787E0,4.5289674E0,7.3520656E0,3.2002716E1,1.7390279E0,3.554407E0,5.7470603E0,1.7112966E0,1.0783924E0,9.487077E0,6.940073E0,5.636484E0,2.1756916E0,2.942652E0,1.7996145E0,1.055739E0,1.1818542E0,3.6829326E0,1.1766337E0,3.3523335E0,6.243241E0,1.1088247E0,1.8373905E1,1.362881E1,3.9761176E0,1.7709428E0,8.101938E0,1.385138E0,5.926474E0,1.0135992E0,3.259659E0,2.376825E0,1.0141748E0,1.1615167E0,2.619572E0,1.0633607E0,2.2970703E0,1.0552632E0,5.150407E0,1.0928341E0,1.50308485E1,3.3430555E0,1.062539E1,3.0034199E0],"tree_param":{"num_deleted":"0","num_feature":"12","num_nodes":"63","size_leaf_vector":"1"}},{"base_weights":[-1.6445046E-2,2.8947785E-2,-6.7153907E-1,-2.6633186E-2,5.823082E-1,-2.3827276E-1,-1.2008414E-2,1.5657106E-1,-3.2169968E-1,7.0525694E-1,-2.76613E-2,-1.707464E-1,5.7914805E-1,-5.075616E-1,3.8677844E-1,2.4382468E-1,5.8664843E-2,-7.618864E-1,2.7352792E-1,-6.319787E-2,8.054828E-1,-6.760634E-2,-3.2466805E-1,-1.4968292E-1,6.4240426E-1,-3.9930612E-1,2.5146046E-1,1.170804E-1,-2.1174611E-1,2.578132E-1,3.9543446E-2,7.625795E-2,-2.6244673E-1,9.100517E-3,2.362711E-1],"categories":[],"categories_nodes":[],"categories_segments":[],"categories_sizes":[],"default_left":[0,0,0,0,0,0,0,0,0,0,0,0,0,0,0,0,0,0,0,0,0,0,0,0,0,0,0,0,0,0,0,0,0,0,0],"id":23,"left_children":[1,3,5,7,9,-1,-1,11,13,15,-1,17,19,21,23,-1,-1,25,-1,27,29,31,-1,-1,33,-1,-1,-1,-1,-1,-1,-1,-1,-1,-1],"loss_changes":[2.6794288E0,2.6179168E0,4.205835E-1,4.258577E0,7.09136E-1,0E0,0E0,6.834902E0,4.1660542E0,2.0733547E-1,0E0,1.8750072E1,3.1744266E0,6.074167E0,1.8675368E0,0E0,0E0,1.823104E1,0E0,2.176898E0,4.661646E-1,4.0766973E0,0E0,0E0,4.8607683E-1,0E0,0E0,0E0,0E0,0E0,0E0,0E0,0E0,0E0,0E0],"parents":[2147483647,0,0,1,1,2,2,3,3,4,4,7,7,8,8,9,9,11,11,12,12,13,13,14,14,17,17,19,19,20,20,21,21,24,24],"right_children":[2,4,6,8,10,-1,-1,12,14,16,-1,18,20,22,24,-1,-1,26,-1,28,30,32,-1,-1,34,-1,-1,-1,-1,-1,-1,-1,-1,-1,-1],"split_conditions":[1.76E2,2.100494E5,2.2276255E5,3.506363E4,6.6186156E0,-2.3827276E-1,-1.2008414E-2,2.355963E1,7.0123645E6,5.6817194E5,-2.76613E-2,4E0,9.081E3,1.042969E4,4.0463867E0,2.4382468E-1,5.8664843E-2,3.7165E2,2.7352792E-1,7.037185E3,1.47338E5,1.1E1,-3.2466805E-1,-1.4968292E-1,1.659431E4,-3.9930612E-1,2.5146046E-1,1.170804E-1,-2.1174611E-1,2.578132E-1,3.9543446E-2,7.625795E-2,-2.6244673E-1,9.100517E-3,2.362711E-1],"split_indices":[4,3,2,2,8,0,0,5,6,5,0,0,3,5,8,0,0,6,0,6,5,7,0,0,3,0,0,0,0,0,0,0,0,0,0],"split_type":[0,0,0,0,0,0,0,0,0,0,0,0,0,0,0,0,0,0,0,0,0,0,0,0,0,0,0,0,0,0,0,0,0,0,0],"sum_hessian":[8.8451775E1,8.361381E1,4.837964E0,7.684697E1,6.7668414E0,3.8351111E0,1.0028528E0,4.769989E1,2.914708E1,5.685009E0,1.0818322E0,2.7215439E1,2.0484451E1,2.331438E1,5.832698E0,4.203909E0,1.4811003E0,1.7794382E1,9.421058E0,5.5250216E0,1.4959429E1,1.3837917E1,9.476463E0,1.0931562E0,4.739542E0,1.3249747E1,4.5446343E0,3.4694808E0,2.0555406E0,1.3596066E1,1.3633623E0,1.038357E1,3.4543471E0,1.1403613E0,3.5991807E0],"tree_param":{"num_deleted":"0","num_feature":"12","num_nodes":"35","size_leaf_vector":"1"}},{"base_weights":[-1.3540275E-2,4.4448757E-1,-8.002787E-2,5.4550666E-1,2.3537097E-3,-3.598128E-2,-2.1378712E-1,4.6034448E-2,6.1033267E-1,2.0406972E-1,-1.7233083E-1,2.0654066E-1,3.3709876E-2,-6.0635924E-2,7.1256834E-1,-7.4162936E-1,1.19789824E-1,2.5722942E-1,-5.393714E-1,2.197094E-2,7.939779E-1,-8.638208E-1,7.0788465E-3,6.4984244E-1,-7.52064E-2,-5.538417E-2,2.4123679E-1,-2.8527218E-1,2.282786E-2,2.5673732E-1,6.326783E-2,-8.2145795E-2,-3.1366783E-1,5.750304E-2,2.4903013E-1,-2.328399E-1,5.1678117E-2],"categories":[],"categories_nodes":[],"categories_segments":[],"categories_sizes":[],"default_left":[0,0,0,0,0,0,0,0,0,0,0,0,0,0,0,0,0,0,0,0,0,0,0,0,0,0,0,0,0,0,0,0,0,0,0,0,0],"id":24,"left_children":[1,3,5,7,-1,9,-1,-1,11,13,15,-1,-1,17,19,21,23,25,27,-1,29,31,-1,33,35,-1,-1,-1,-1,-1,-1,-1,-1,-1,-1,-1,-1],"loss_changes":[2.3557408E0,4.2843902E-1,1.8517563E0,1.0846019E-1,0E0,2.1314175E0,0E0,0E0,1.750896E-1,3.2276201E0,6.9716873E0,0E0,0E0,2.6465945E0,3.674817E-1,1.3457179E0,2.964927E0,2.7053196E0,1.8197658E0,0E0,7.73077E-2,1.0271177E0,0E0,4.7610736E-1,3.86676E0,0E0,0E0,0E0,0E0,0E0,0E0,0E0,0E0,0E0,0E0,0E0,0E0],"parents":[2147483647,0,0,1,1,2,2,3,3,5,5,8,8,9,9,10,10,13,13,14,14,15,15,16,16,17,17,18,18,20,20,21,21,23,23,24,24],"right_children":[2,4,6,8,-1,10,-1,-1,12,14,16,-1,-1,18,20,22,24,26,28,-1,30,32,-1,34,36,-1,-1,-1,-1,-1,-1,-1,-1,-1,-1,-1,-1],"split_conditions":[2E0,1.1760825E5,1.76E2,4.398355E3,2.3537097E-3,1.8966203E4,-2.1378712E-1,4.6034448E-2,1.2E1,1.420553E4,2.35192E4,2.0654066E-1,3.3709876E-2,1.0755716E4,9E0,3.1058592E6,4.69617E4,9.081E3,1.1202852E4,2.197094E-2,6.852277E0,6E0,7.0788465E-3,3.0642486E4,5.1202E4,-5.538417E-2,2.4123679E-1,-2.8527218E-1,2.282786E-2,2.5673732E-1,6.326783E-2,-8.2145795E-2,-3.1366783E-1,5.750304E-2,2.4903013E-1,-2.328399E-1,5.1678117E-2],"split_indices":[7,5,4,3,0,2,0,0,11,3,3,0,0,2,1,6,2,3,3,0,8,7,0,3,3,0,0,0,0,0,0,0,0,0,0,0,0],"split_type":[0,0,0,0,0,0,0,0,0,0,0,0,0,0,0,0,0,0,0,0,0,0,0,0,0,0,0,0,0,0,0,0,0,0,0,0,0],"sum_hessian":[7.518811E1,8.810182E0,6.637793E1,6.9523916E0,1.8577901E0,6.3045082E1,3.3328447E0,1.4641991E0,5.4881926E0,2.2657907E1,4.0387177E1,4.413161E0,1.0750316E0,1.54802265E1,7.1776805E0,1.3174097E1,2.721308E1,9.58126E0,5.898967E0,1.0253023E0,6.152378E0,1.1249007E1,1.9250892E0,6.691414E0,2.0521666E1,5.666024E0,3.9152355E0,3.2085292E0,2.6904376E0,5.13981E0,1.0125679E0,3.239351E0,8.009657E0,2.471894E0,4.2195196E0,4.7973394E0,1.5724326E1],"tree_param":{"num_deleted":"0","num_feature":"12","num_nodes":"37","size_leaf_vector":"1"}},{"base_weights":[-7.350895E-3,1.7946385E-1,-1.5164271E-1,-2.2180985E-1,2.474287E-1,-2.4015898E-1,2.57678E-1,1.0141256E-1,-1.7558053E-1,3.84024E-1,-5.325107E-2,-1.2755726E-1,-8.843197E-1,1.755456E-1,-5.9884163E-3,-6.708979E-2,5.8675987E-1,2.25474E-1,-4.524399E-1,1.7354509E-1,-2.6148984E-1,-5.6489814E-2,-3.3281034E-1,-1.479609E-1,2.2817495E-1,3.058434E-1,-6.0276586E-1,6.483267E-1,-1.8510522E-2,-1.2663488E-1,4.6774763E-1,-1.8192363E-1,-2.521575E-3,-1.9776668E-1,4.033497E-1,6.678257E-2,-5.242682E-1,3.8748947E-1,-3.9722808E-2,1.7038208E-1,-2.68538E-2,-2.9341933E-1,1.8369187E-2,2.2745626E-1,7.6244675E-2,5.1150918E-2,-1.14862144E-1,1.7425567E-1,2.1879738E-2,9.971543E-2,-1.8018539E-1,1.8490459E-1,-5.3135928E-2,-1.5326919E-1,8.729179E-2,9.501532E-2,-2.682747E-1,1.4497328E-1,2.731314E-2],"categories":[],"categories_nodes":[],"categories_segments":[],"categories_sizes":[],"default_left":[0,0,0,0,0,0,0,0,0,0,0,0,0,0,0,0,0,0,0,0,0,0,0,0,0,0,0,0,0,0,0,0,0,0,0,0,0,0,0,0,0,0,0,0,0,0,0,0,0,0,0,0,0,0,0,0,0,0,0],"id":25,"left_children":[1,3,5,7,9,11,13,-1,-1,15,17,19,21,-1,23,25,27,29,31,33,35,-1,-1,-1,37,39,41,43,-1,45,47,-1,-1,49,51,53,55,57,-1,-1,-1,-1,-1,-1,-1,-1,-1,-1,-1,-1,-1,-1,-1,-1,-1,-1,-1,-1,-1],"loss_changes":[1.921692E0,9.0265954E-1,1.5182241E0,1.2213099E0,1.1316656E0,2.3218737E0,6.6223985E-1,0E0,0E0,1.751975E0,1.1400875E0,1.2447286E0,5.47024E-1,0E0,7.07644E-1,1.5235442E0,5.5989885E-1,5.8483005E-1,2.7990383E-1,9.123347E-1,1.845081E0,0E0,0E0,0E0,2.9296684E-1,5.29109E-1,8.2942426E-1,3.2609606E-1,0E0,3.1640902E-1,1.3013864E-1,0E0,0E0,1.13959E0,8.9501905E-1,1.4717356E0,3.944555E0,4.605308E-2,0E0,0E0,0E0,0E0,0E0,0E0,0E0,0E0,0E0,0E0,0E0,0E0,0E0,0E0,0E0,0E0,0E0,0E0,0E0,0E0,0E0],"parents":[2147483647,0,0,1,1,2,2,3,3,4,4,5,5,6,6,9,9,10,10,11,11,12,12,14,14,15,15,16,16,17,17,18,18,19,19,20,20,24,24,25,25,26,26,27,27,29,29,30,30,33,33,34,34,35,35,36,36,37,37],"right_children":[2,4,6,8,10,12,14,-1,-1,16,18,20,22,-1,24,26,28,30,32,34,36,-1,-1,-1,38,40,42,44,-1,46,48,-1,-1,50,52,54,56,58,-1,-1,-1,-1,-1,-1,-1,-1,-1,-1,-1,-1,-1,-1,-1,-1,-1,-1,-1,-1,-1],"split_conditions":[1E0,8E0,1.442936E5,1.591862E4,1.1E1,1.3810262E5,4.9750107E3,1.0141256E-1,-1.7558053E-1,3.792821E0,1E1,6E0,3.9E1,1.755456E-1,1.160805E4,1.308493E5,1.5E1,1.5818E4,1.7E1,1.788925E4,1.8966203E4,-5.6489814E-2,-3.3281034E-1,-1.479609E-1,5.7E1,8E0,6.473871E4,3.866808E4,-1.8510522E-2,4E0,9.792528E4,-1.8192363E-1,-2.521575E-3,2E0,1.1254884E4,8.94803E3,5E0,8.971508E5,-3.9722808E-2,1.7038208E-1,-2.68538E-2,-2.9341933E-1,1.8369187E-2,2.2745626E-1,7.6244675E-2,5.1150918E-2,-1.14862144E-1,1.7425567E-1,2.1879738E-2,9.971543E-2,-1.8018539E-1,1.8490459E-1,-5.3135928E-2,-1.5326919E-1,8.729179E-2,9.501532E-2,-2.682747E-1,1.4497328E-1,2.731314E-2],"split_indices":[9,1,3,2,11,2,5,0,0,8,7,7,1,0,5,6,7,3,7,3,2,0,0,0,1,7,3,5,0,7,2,0,0,0,5,2,11,3,0,0,0,0,0,0,0,0,0,0,0,0,0,0,0,0,0,0,0,0,0],"split_type":[0,0,0,0,0,0,0,0,0,0,0,0,0,0,0,0,0,0,0,0,0,0,0,0,0,0,0,0,0,0,0,0,0,0,0,0,0,0,0,0,0,0,0,0,0,0,0,0,0,0,0,0,0,0,0,0,0,0,0],"sum_hessian":[6.928079E1,3.0085419E1,3.9195374E1,4.029733E0,2.6055685E1,3.2566162E1,6.629211E0,1.6138213E0,2.4159117E0,1.7725853E1,8.329833E0,2.8740276E1,3.8258874E0,2.4129882E0,4.216223E0,5.7036233E0,1.2022229E1,5.161262E0,3.1685715E0,8.757105E0,1.9983171E1,1.3835628E0,2.4423246E0,1.0095197E0,3.206703E0,3.6155553E0,2.0880678E0,1.0979967E1,1.0422615E0,2.298312E0,2.86295E0,2.0812106E0,1.087361E0,3.4011066E0,5.3559985E0,9.216028E0,1.0767142E1,2.1723104E0,1.0343927E0,1.9116923E0,1.703863E0,1.0318551E0,1.0562128E0,7.8645754E0,3.1153922E0,1.2191561E0,1.0791557E0,1.8591503E0,1.0037999E0,1.544054E0,1.8570526E0,3.8730142E0,1.4829842E0,2.2191062E0,6.996922E0,3.333617E0,7.4335256E0,1.1656629E0,1.0066475E0],"tree_param":{"num_deleted":"0","num_feature":"12","num_nodes":"59","size_leaf_vector":"1"}},{"base_weights":[-9.638611E-3,3.211664E-2,-5.899961E-1,-7.889226E-3,2.0914522E-1,-2.1331462E-1,-2.6546365E-2,5.298782E-2,-5.002805E-1,-5.9089396E-2,3.1076708E-1,-3.5169046E-2,-2.594558E-1,1.1373103E-1,-6.5515137E-1,7.476743E-1,-5.0209172E-2,-1.7691371E-1,1.7251465E-1,-4.6307277E-2,1.3369448E-1,-3.2890746E-1,-9.543522E-2,2.5242746E-1,6.828824E-2,6.5261714E-2,-2.4168585E-1],"categories":[],"categories_nodes":[],"categories_segments":[],"categories_sizes":[],"default_left":[0,0,0,0,0,0,0,0,0,0,0,0,0,0,0,0,0,0,0,0,0,0,0,0,0,0,0],"id":26,"left_children":[1,3,5,7,-1,-1,-1,9,11,13,15,17,-1,19,21,23,25,-1,-1,-1,-1,-1,-1,-1,-1,-1,-1],"loss_changes":[1.6108361E0,1.6611528E0,2.0788515E-1,1.8156753E0,0E0,0E0,0E0,1.5791985E0,1.0994645E0,4.0398264E0,2.644662E0,1.6826434E0,0E0,2.8000164E0,9.5982075E-1,1.7616463E-1,2.1956358E0,0E0,0E0,0E0,0E0,0E0,0E0,0E0,0E0,0E0,0E0],"parents":[2147483647,0,0,1,1,2,2,3,3,7,7,8,8,9,9,10,10,11,11,13,13,14,14,15,15,16,16],"right_children":[2,4,6,8,-1,-1,-1,10,12,14,16,18,-1,20,22,24,26,-1,-1,-1,-1,-1,-1,-1,-1,-1,-1],"split_conditions":[1.76E2,5.93291E5,1.478499E5,2.69737E5,2.0914522E-1,-2.1331462E-1,-2.6546365E-2,3.0642486E4,4E0,3.0513145E4,1.6649088E4,5.5795685E6,-2.594558E-1,2.355963E1,3.2E1,1.2444278E4,9E0,-1.7691371E-1,1.7251465E-1,-4.6307277E-2,1.3369448E-1,-3.2890746E-1,-9.543522E-2,2.5242746E-1,6.828824E-2,6.5261714E-2,-2.4168585E-1],"split_indices":[4,3,2,2,0,0,0,3,0,2,6,6,0,5,1,5,11,0,0,0,0,0,0,0,0,0,0],"split_type":[0,0,0,0,0,0,0,0,0,0,0,0,0,0,0,0,0,0,0,0,0,0,0,0,0,0,0],"sum_hessian":[6.469097E1,6.123027E1,3.4607024E0,5.868797E1,2.542303E0,2.4512146E0,1.0094879E0,5.3024628E1,5.66334E0,3.749384E1,1.5530789E1,2.9703338E0,2.6930063E0,2.9693726E1,7.800114E0,6.541743E0,8.989047E0,1.5737616E0,1.3965724E0,1.6722202E1,1.2971523E1,2.402315E0,5.397799E0,5.0189757E0,1.5227667E0,7.162419E0,1.8266279E0],"tree_param":{"num_deleted":"0","num_feature":"12","num_nodes":"27","size_leaf_vector":"1"}},{"base_weights":[-1.3891443E-2,2.9983778E-2,-5.5712336E-1,-1.8944936E-1,6.0295254E-2,3.530198E-3,-2.2422828E-1,9.687424E-2,-4.945899E-1,4.2896038E-1,2.7965685E-2,-1.8658674E-1,-2.3836719E-2,6.227968E-1,-9.4145164E-2,-4.3415788E-1,1.5270995E-1,9.420923E-3,2.5741768E-1,-2.2257835E-1,1.5260494E-2,1.9315778E-1,1.3593112E-2],"categories":[],"categories_nodes":[],"categories_segments":[],"categories_sizes":[],"default_left":[0,0,0,0,0,0,0,0,0,0,0,0,0,0,0,0,0,0,0,0,0,0,0],"id":27,"left_children":[1,3,5,-1,7,-1,-1,9,11,13,15,-1,-1,17,-1,19,21,-1,-1,-1,-1,-1,-1],"loss_changes":[1.4831547E0,1.198549E0,5.121093E-1,0E0,1.1897168E0,0E0,0E0,1.2148287E0,1.4319295E-1,1.5118424E0,2.6874354E0,0E0,0E0,1.028506E0,0E0,1.5193051E0,1.8984698E0,0E0,0E0,0E0,0E0,0E0,0E0],"parents":[2147483647,0,0,1,1,2,2,4,4,7,7,8,8,9,9,10,10,13,13,15,15,16,16],"right_children":[2,4,6,-1,8,-1,-1,10,12,14,16,-1,-1,18,-1,20,22,-1,-1,-1,-1,-1,-1],"split_conditions":[9.8E1,1.73E2,5E0,-1.8944936E-1,1.76E2,3.530198E-3,-2.2422828E-1,1.0755716E4,1.014855E5,6.546126E0,1.39724795E4,-1.8658674E-1,-2.3836719E-2,5.20354E3,-9.4145164E-2,7.037185E3,1.8966203E4,9.420923E-3,2.5741768E-1,-2.2257835E-1,1.5260494E-2,1.9315778E-1,1.3593112E-2],"split_indices":[1,3,7,0,4,0,0,2,2,8,3,0,0,3,0,6,2,0,0,0,0,0,0],"split_type":[0,0,0,0,0,0,0,0,0,0,0,0,0,0,0,0,0,0,0,0,0,0,0],"sum_hessian":[6.0526566E1,5.687754E1,3.6490245E0,1.6231095E0,5.5254433E1,1.1498518E0,2.4991727E0,5.26116E1,2.6428313E0,8.143094E0,4.4468506E1,1.6411207E0,1.0017107E0,6.585945E0,1.5571485E0,8.92497E0,3.5543537E1,2.1969104E0,4.3890347E0,5.1361785E0,3.7887912E0,5.4814262E0,3.006211E1],"tree_param":{"num_deleted":"0","num_feature":"12","num_nodes":"23","size_leaf_vector":"1"}},{"base_weights":[-1.6781066E-2,3.0203944E-1,-8.8974394E-2,4.739626E-1,6.853122E-2,-1.4053158E-1,4.9265274E-1,-3.580677E-2,6.397906E-1,2.2852333E-1,-9.9343106E-2,-3.0239027E-2,-4.8705614E-1,1.7361553E-1,3.409331E-2,2.1163015E-1,5.6720767E-2,-1.3870904E-1,1.8171121E-1,-1.8062295E-1,2.8348818E-1,-6.867882E-1,-4.632934E-2,6.9270623E-3,-7.498374E-2,-5.3625387E-1,5.1047E-1,4.851991E-1,-2.0248295E-1,-4.253964E-2,-2.4275975E-1,-1.5258214E-1,2.7441394E-1,-3.2965913E-1,8.63174E-2,2.5695878E-1,-2.5157958E-1,2.3678567E-1,-3.9480603E-3,1.5990914E-1,-3.8553335E-2],"categories":[],"categories_nodes":[],"categories_segments":[],"categories_sizes":[],"default_left":[0,0,0,0,0,0,0,0,0,0,0,0,0,0,0,0,0,0,0,0,0,0,0,0,0,0,0,0,0,0,0,0,0,0,0,0,0,0,0,0,0],"id":28,"left_children":[1,3,5,7,9,11,13,-1,15,17,-1,19,21,-1,-1,-1,-1,23,-1,25,27,29,31,-1,-1,33,35,37,-1,-1,-1,-1,39,-1,-1,-1,-1,-1,-1,-1,-1],"loss_changes":[1.3822231E0,4.1311872E-1,1.532176E0,6.8871534E-1,4.5140308E-1,1.7277355E0,7.104969E-2,0E0,1.5194178E-2,7.4718714E-1,0E0,1.733164E0,9.313121E-1,0E0,0E0,0E0,0E0,6.407681E-2,0E0,6.3466783E0,2.6359415E0,3.827207E-1,8.044906E-1,0E0,0E0,8.105185E0,4.8768187E0,1.5934837E0,0E0,0E0,0E0,0E0,4.120648E-1,0E0,0E0,0E0,0E0,0E0,0E0,0E0,0E0],"parents":[2147483647,0,0,1,1,2,2,3,3,4,4,5,5,6,6,8,8,9,9,11,11,12,12,17,17,19,19,20,20,21,21,22,22,25,25,26,26,27,27,32,32],"right_children":[2,4,6,8,10,12,14,-1,16,18,-1,20,22,-1,-1,-1,-1,24,-1,26,28,30,32,-1,-1,34,36,38,-1,-1,-1,-1,40,-1,-1,-1,-1,-1,-1,-1,-1],"split_conditions":[3E0,3E0,1.0645791E7,6E0,7.9272016E4,3.146978E4,6.715842E0,-3.580677E-2,1.327333E5,4E0,-9.9343106E-2,3.5099722E2,1.707661E6,1.7361553E-1,3.409331E-2,2.1163015E-1,5.6720767E-2,5.2E1,1.8171121E-1,4E0,2.6054192E5,6E0,4.4327226E0,6.9270623E-3,-7.498374E-2,3.7165E2,3.7165E2,1.042969E4,-2.0248295E-1,-4.253964E-2,-2.4275975E-1,-1.5258214E-1,5E0,-3.2965913E-1,8.63174E-2,2.5695878E-1,-2.5157958E-1,2.3678567E-1,-3.9480603E-3,1.5990914E-1,-3.8553335E-2],"split_indices":[7,0,6,11,6,5,8,0,5,0,0,5,6,0,0,0,0,1,0,0,2,7,8,0,0,6,6,5,0,0,0,0,11,0,0,0,0,0,0,0,0],"split_type":[0,0,0,0,0,0,0,0,0,0,0,0,0,0,0,0,0,0,0,0,0,0,0,0,0,0,0,0,0,0,0,0,0,0,0,0,0,0,0,0,0],"sum_hessian":[5.788544E1,1.0099633E1,4.7785805E1,5.2238016E0,4.8758316E0,4.4591465E1,3.1943402E0,1.2023038E0,4.0214977E0,3.7877865E0,1.0880452E0,3.4650192E1,9.941272E0,2.1737862E0,1.0205538E0,3.016982E0,1.0045156E0,2.2395518E0,1.5482347E0,2.3709435E1,1.0940759E1,6.4568133E0,3.4844582E0,1.2352474E0,1.0043044E0,1.5801935E1,7.9075003E0,9.446426E0,1.4943322E0,1.5801529E0,4.8766603E0,1.1873918E0,2.2970665E0,9.192036E0,6.6099E0,6.5837507E0,1.3237493E0,5.5041575E0,3.9422688E0,1.2024039E0,1.0946624E0],"tree_param":{"num_deleted":"0","num_feature":"12","num_nodes":"41","size_leaf_vector":"1"}},{"base_weights":[-1.35785565E-2,1.6477415E-1,-1.5426861E-1,2.8157854E-1,-5.1698E-2,1.3017392E-2,-4.1974723E-1,3.8847396E-1,-1.682391E-1,-5.664771E-1,2.1280669E-1,-3.829842E-1,9.49015E-2,-9.7083986E-2,-6.629018E-1,1.2250367E-1,6.840524E-1,-1.08748E-1,3.2641876E-2,-2.585872E-1,1.9876607E-2,-9.514333E-2,3.6900562E-1,-1.9747095E-1,3.4604907E-2,1.7727433E-1,-1.3175967E-1,1.004956E-1,-3.7076154E-1,-1.1545208E-1,-2.8726918E-1,-2.6241067E-1,2.1297264E-1,3.585699E-2,2.328687E-1,1.9847018E-1,8.7066405E-2,2.5485057E-1,-1.3499978E-1,-5.9225094E-3,-1.5684271E-1,-1.5207084E-1,1.1500649E-1,-2.2282118E-1,1.5206029E-1,1.20634176E-1,-1.1217583E-1,2.0444902E-2,1.4421791E-1],"categories":[],"categories_nodes":[],"categories_segments":[],"categories_sizes":[],"default_left":[0,0,0,0,0,0,0,0,0,0,0,0,0,0,0,0,0,0,0,0,0,0,0,0,0,0,0,0,0,0,0,0,0,0,0,0,0,0,0,0,0,0,0,0,0,0,0,0,0],"id":29,"left_children":[1,3,5,7,9,11,13,15,17,19,21,23,25,27,29,31,33,-1,-1,-1,-1,-1,35,-1,-1,37,-1,-1,39,41,-1,43,-1,-1,-1,-1,45,47,-1,-1,-1,-1,-1,-1,-1,-1,-1,-1,-1],"loss_changes":[1.3405039E0,6.1115086E-1,1.32956E0,8.0971825E-1,1.3615587E0,6.6086495E-1,8.422148E-1,9.232893E-1,2.3696479E-1,6.865357E-1,6.755798E-1,5.5583113E-1,8.1526566E-1,8.49913E-1,9.247155E-1,1.9862878E0,2.1159935E-1,0E0,0E0,0E0,0E0,0E0,4.1039675E-1,0E0,0E0,8.559853E-1,0E0,0E0,2.1554583E-1,8.548303E-1,0E0,2.423383E0,0E0,0E0,0E0,0E0,7.3722506E-1,5.6588596E-1,0E0,0E0,0E0,0E0,0E0,0E0,0E0,0E0,0E0,0E0,0E0],"parents":[2147483647,0,0,1,1,2,2,3,3,4,4,5,5,6,6,7,7,8,8,9,9,10,10,11,11,12,12,13,13,14,14,15,15,16,16,22,22,25,25,28,28,29,29,31,31,36,36,37,37],"right_children":[2,4,6,8,10,12,14,16,18,20,22,24,26,28,30,32,34,-1,-1,-1,-1,-1,36,-1,-1,38,-1,-1,40,42,-1,44,-1,-1,-1,-1,46,48,-1,-1,-1,-1,-1,-1,-1,-1,-1,-1,-1],"split_conditions":[1E0,1.308493E5,9E0,2E0,3.792821E0,1.8409861E0,7E0,3.7165E2,1.1E1,6.9986E4,2.7E1,7.475202E4,7.034311E0,4E1,1.8966203E4,4E0,1.0170713E4,-1.08748E-1,3.2641876E-2,-2.585872E-1,1.9876607E-2,-9.514333E-2,4E1,-1.9747095E-1,3.4604907E-2,1E2,-1.3175967E-1,1.004956E-1,5.057065E4,1.702658E4,-2.8726918E-1,2.355963E1,2.1297264E-1,3.585699E-2,2.328687E-1,1.9847018E-1,1.0942119E5,4.5E1,-1.3499978E-1,-5.9225094E-3,-1.5684271E-1,-1.5207084E-1,1.1500649E-1,-2.2282118E-1,1.5206029E-1,1.20634176E-1,-1.1217583E-1,2.0444902E-2,1.4421791E-1],"split_indices":[9,6,11,10,8,8,7,6,11,3,1,3,8,1,2,0,3,0,0,0,0,0,1,0,0,1,0,0,6,3,0,5,0,0,0,0,5,1,0,0,0,0,0,0,0,0,0,0,0],"split_type":[0,0,0,0,0,0,0,0,0,0,0,0,0,0,0,0,0,0,0,0,0,0,0,0,0,0,0,0,0,0,0,0,0,0,0,0,0,0,0,0,0,0,0,0,0,0,0,0,0],"sum_hessian":[5.140956E1,2.259487E1,2.8814692E1,1.4480629E1,8.114241E0,1.8259686E1,1.0555007E1,1.1810369E1,2.6702611E0,2.3666377E0,5.7476034E0,2.4986684E0,1.5761017E1,5.137231E0,5.4177756E0,6.9610567E0,4.849312E0,1.3883643E0,1.2818968E0,1.3663069E0,1.0003308E0,1.0738525E0,4.673751E0,1.402906E0,1.0957625E0,1.4233856E1,1.5271602E0,1.9052682E0,3.231963E0,2.3827324E0,3.0350432E0,4.5396137E0,2.4214427E0,1.0030257E0,3.846286E0,1.6328707E0,3.0408802E0,1.3195641E1,1.0382154E0,1.3183144E0,1.9136484E0,1.3259397E0,1.0567927E0,2.815904E0,1.72371E0,1.8822317E0,1.1586485E0,7.9369516E0,5.2586894E0],"tree_param":{"num_deleted":"0","num_feature":"12","num_nodes":"49","size_leaf_vector":"1"}},{"base_weights":[-1.7315272E-2,3.4693286E-1,-7.41875E-2,4.3241307E-1,4.867381E-3,3.096185E-3,-4.1085115E-1,2.2276169E-2,1.5106866E-1,-1.5258E-1,4.7316488E-2,-5.4409444E-1,3.2759696E-2,-3.651364E-2,3.1685832E-1,-7.904903E-2,-2.6043865E-1,5.5612516E-2,-5.683582E-1,-8.6542755E-2,4.9459025E-1,1.3513961E-1,-1.3735108E-1,-3.6797177E-2,1.1731981E-1,-1.5809002E-3,-2.2942336E-1,1.8893366E-1,3.7399095E-2],"categories":[],"categories_nodes":[],"categories_segments":[],"categories_sizes":[],"default_left":[0,0,0,0,0,0,0,0,0,0,0,0,0,0,0,0,0,0,0,0,0,0,0,0,0,0,0,0,0],"id":30,"left_children":[1,3,5,7,-1,9,11,-1,-1,-1,13,15,-1,17,19,21,-1,23,25,-1,27,-1,-1,-1,-1,-1,-1,-1,-1],"loss_changes":[1.0388145E0,1.8466657E-1,1.1232824E0,9.891546E-2,0E0,8.401162E-1,6.178199E-1,0E0,0E0,0E0,7.823305E-1,9.2324233E-1,0E0,1.35038E0,1.024401E0,9.6904594E-1,0E0,1.4743707E0,4.452753E-1,0E0,2.567413E-1,0E0,0E0,0E0,0E0,0E0,0E0,0E0,0E0],"parents":[2147483647,0,0,1,1,2,2,3,3,5,5,6,6,10,10,11,11,13,13,14,14,15,15,17,17,18,18,20,20],"right_children":[2,4,6,8,-1,10,12,-1,-1,-1,14,16,-1,18,20,22,-1,24,26,-1,28,-1,-1,-1,-1,-1,-1,-1,-1],"split_conditions":[2E0,1.1760825E5,7.8E1,7.81814E3,4.867381E-3,3.2927837E3,1.5643952E5,2.2276169E-2,1.5106866E-1,-1.5258E-1,7.777004E5,1.9529752E4,3.2759696E-2,3.866808E4,3.9002008E0,2E0,-2.6043865E-1,3.5099722E2,4.130317E4,-8.6542755E-2,6.6186156E0,1.3513961E-1,-1.3735108E-1,-3.6797177E-2,1.1731981E-1,-1.5809002E-3,-2.2942336E-1,1.8893366E-1,3.7399095E-2],"split_indices":[7,5,1,2,0,3,3,0,0,0,6,2,0,5,8,0,0,5,2,0,8,0,0,0,0,0,0,0,0],"split_type":[0,0,0,0,0,0,0,0,0,0,0,0,0,0,0,0,0,0,0,0,0,0,0,0,0,0,0,0,0],"sum_hessian":[4.790403E1,5.7806478E0,4.2123383E1,4.3489985E0,1.4316492E0,3.5064796E1,7.058586E0,1.0594492E0,3.2895494E0,1.9538844E0,3.3110912E1,5.582138E0,1.476448E0,2.591548E1,7.1954317E0,2.8031232E0,2.779015E0,2.2852417E1,3.063063E0,1.4917184E0,5.7037134E0,1.0900685E0,1.7130548E0,1.5336506E1,7.5159116E0,1.0575726E0,2.0054903E0,3.6627352E0,2.0409782E0],"tree_param":{"num_deleted":"0","num_feature":"12","num_nodes":"29","size_leaf_vector":"1"}},{"base_weights":[-1.690511E-2,1.6051857E-1,-1.4920785E-1,2.7042615E-1,-3.716261E-2,-2.3088963E-1,2.1121822E-1,3.787461E-1,-1.4265531E-1,1.4294775E-1,-1.8070212E-1,-5.681127E-2,-5.279128E-1,3.4802982E-1,-4.6863396E-2,5.231277E-1,-4.7141675E-2,-8.854671E-2,2.306759E-2,-2.3159254E-1,1.7807414E-1,-2.1584858E-1,4.8377883E-1,-1.9843368E-1,-2.9489377E-1,1.4605899E-1,-1.1748867E-2,6.426578E-1,1.1293331E-1,-1.0154634E-1,8.682513E-2,-1.6658863E-1,5.6136552E-2,-6.235637E-1,2.4838561E-1,3.3701647E-2,1.8435761E-1,2.2447492E-1,-6.0859483E-1,2.1989025E-1,3.26032E-2,-1.7018659E-2,6.768398E-2,-2.7757263E-1,1.5785478E-1,-4.6669275E-2,1.734841E-1,-5.9401114E-2,1.6408736E-1,-2.174734E-1,-5.1111344E-2],"categories":[],"categories_nodes":[],"categories_segments":[],"categories_sizes":[],"default_left":[0,0,0,0,0,0,0,0,0,0,0,0,0,0,0,0,0,0,0,0,0,0,0,0,0,0,0,0,0,0,0,0,0,0,0,0,0,0,0,0,0,0,0,0,0,0,0,0,0,0,0],"id":31,"left_children":[1,3,5,7,9,11,13,15,17,19,-1,21,23,25,-1,27,29,-1,-1,31,-1,33,35,37,-1,-1,-1,39,41,-1,-1,-1,-1,43,45,-1,-1,47,49,-1,-1,-1,-1,-1,-1,-1,-1,-1,-1,-1,-1],"loss_changes":[1.1266116E0,4.564749E-1,8.562286E-1,6.503096E-1,9.229706E-1,1.1508307E0,3.3534515E-1,6.906817E-1,1.3970746E-1,1.3261167E0,0E0,1.4386841E0,1.0521305E0,2.546646E-1,0E0,3.2808495E-1,4.5680836E-1,0E0,0E0,7.2269034E-1,0E0,2.555467E0,1.172747E-1,1.1908729E0,0E0,0E0,0E0,2.1521044E-1,7.1242966E-2,0E0,0E0,0E0,0E0,2.9278028E0,9.7555816E-1,0E0,0E0,6.1552143E-1,4.7501802E-2,0E0,0E0,0E0,0E0,0E0,0E0,0E0,0E0,0E0,0E0,0E0,0E0],"parents":[2147483647,0,0,1,1,2,2,3,3,4,4,5,5,6,6,7,7,8,8,9,9,11,11,12,12,13,13,15,15,16,16,19,19,21,21,22,22,23,23,27,27,28,28,33,33,34,34,37,37,38,38],"right_children":[2,4,6,8,10,12,14,16,18,20,-1,22,24,26,-1,28,30,-1,-1,32,-1,34,36,38,-1,-1,-1,40,42,-1,-1,-1,-1,44,46,-1,-1,48,50,-1,-1,-1,-1,-1,-1,-1,-1,-1,-1,-1,-1],"split_conditions":[1E0,1.308493E5,1.442936E5,2E0,4E0,4.69617E4,1.4E1,1.2E1,1.1E1,1.9421394E5,-1.8070212E-1,4E0,4.8E1,7.8E1,-4.6863396E-2,1.3E1,1.466E4,-8.854671E-2,2.306759E-2,4.1234734E4,1.7807414E-1,2.355963E1,2.2051E4,1.1254884E4,-2.9489377E-1,1.4605899E-1,-1.1748867E-2,6.6186156E0,3.9E1,-1.0154634E-1,8.682513E-2,-1.6658863E-1,5.6136552E-2,3.7165E2,1.4454E4,3.3701647E-2,1.8435761E-1,6.794E4,4.0463867E0,2.1989025E-1,3.26032E-2,-1.7018659E-2,6.768398E-2,-2.7757263E-1,1.5785478E-1,-4.6669275E-2,1.734841E-1,-5.9401114E-2,1.6408736E-1,-2.174734E-1,-5.1111344E-2],"split_indices":[9,6,3,10,0,2,7,11,11,2,0,0,1,1,0,7,3,0,0,3,0,5,3,5,0,0,0,8,1,0,0,0,0,6,3,0,0,3,8,0,0,0,0,0,0,0,0,0,0,0,0],"split_type":[0,0,0,0,0,0,0,0,0,0,0,0,0,0,0,0,0,0,0,0,0,0,0,0,0,0,0,0,0,0,0,0,0,0,0,0,0,0,0,0,0,0,0,0,0,0,0,0,0,0,0],"sum_hessian":[4.5974438E1,1.954734E1,2.6427097E1,1.2326186E1,7.2211547E0,2.1837547E1,4.5895505E0,9.831303E0,2.4948843E0,6.042584E0,1.1785705E0,1.4519358E1,7.318189E0,3.3827784E0,1.2067719E0,7.171684E0,2.6596184E0,1.2690221E0,1.2258621E0,3.5653446E0,2.4772394E0,1.16830225E1,2.8363352E0,5.0777965E0,2.240393E0,2.3004873E0,1.082291E0,5.1145844E0,2.057099E0,1.4224908E0,1.2371277E0,1.8268433E0,1.7385013E0,6.0374255E0,5.645597E0,1.2225065E0,1.6138288E0,2.7229426E0,2.3548539E0,4.0559688E0,1.058616E0,1.0191357E0,1.0379634E0,4.937226E0,1.1001993E0,2.7754967E0,2.8701003E0,1.3458167E0,1.3771259E0,1.3439336E0,1.0109203E0],"tree_param":{"num_deleted":"0","num_feature":"12","num_nodes":"51","size_leaf_vector":"1"}},{"base_weights":[-1.348282E-2,1.025671E-1,-1.7600146E-1,3.0347055E-1,-4.609571E-2,2.002294E-1,-2.7831727E-1,4.280075E-1,-7.844516E-2,2.4422455E-1,-3.6395457E-1,1.2314155E-1,-2.0387242E-2,-7.883063E-2,-5.3893584E-1,-3.020414E-2,5.16353E-1,-1.0729592E-1,3.6747003E-1,-7.0180696E-1,1.8356597E-1,-3.3335307E-1,4.6018896E-1,-2.3276912E-1,-2.819732E-2,5.963579E-1,-9.17734E-3,5.1258343E-1,-5.0044984E-2,-2.6868954E-1,2.4462242E-2,-6.670448E-1,1.4751703E-1,1.6951573E-1,3.0225473E-2,6.255363E-2,-7.5852945E-2,2.0429263E-1,1.6187059E-2,2.0464401E-1,5.1629517E-2,-2.75697E-1,-1.8593078E-2],"categories":[],"categories_nodes":[],"categories_segments":[],"categories_sizes":[],"default_left":[0,0,0,0,0,0,0,0,0,0,0,0,0,0,0,0,0,0,0,0,0,0,0,0,0,0,0,0,0,0,0,0,0,0,0,0,0,0,0,0,0,0,0],"id":32,"left_children":[1,3,5,7,9,11,13,15,-1,17,19,-1,-1,21,23,-1,25,-1,27,29,-1,31,33,-1,35,37,-1,39,-1,-1,-1,41,-1,-1,-1,-1,-1,-1,-1,-1,-1,-1,-1],"loss_changes":[8.3324116E-1,7.859909E-1,7.6303965E-1,8.946111E-1,1.5398756E0,2.8219557E-1,7.30309E-1,4.9544442E-1,0E0,7.854031E-1,3.036416E0,0E0,0E0,1.4692131E0,7.3735476E-1,0E0,3.813572E-1,0E0,6.911119E-1,1.0355804E0,0E0,2.2813084E0,7.485235E-2,0E0,2.1362346E-1,2.977538E-1,0E0,2.5141752E-1,0E0,0E0,0E0,7.778182E-1,0E0,0E0,0E0,0E0,0E0,0E0,0E0,0E0,0E0,0E0,0E0],"parents":[2147483647,0,0,1,1,2,2,3,3,4,4,5,5,6,6,7,7,9,9,10,10,13,13,14,14,16,16,18,18,19,19,21,21,22,22,24,24,25,25,27,27,31,31],"right_children":[2,4,6,8,10,12,14,16,-1,18,20,-1,-1,22,24,-1,26,-1,28,30,-1,32,34,-1,36,38,-1,40,-1,-1,-1,42,-1,-1,-1,-1,-1,-1,-1,-1,-1,-1,-1],"split_conditions":[9E0,1E0,3E0,1.3E1,3.47952E4,3E0,2.277425E4,8.043E3,-7.844516E-2,2.4386322E0,1.0645791E7,1.2314155E-1,-2.0387242E-2,4E0,2.69737E5,-3.020414E-2,9.1E1,-1.0729592E-1,1.5E1,2.100494E5,1.8356597E-1,3.7165E2,3.4239203E4,-2.3276912E-1,3.5E1,1.6116802E5,-9.17734E-3,4.9324493E0,-5.0044984E-2,-2.6868954E-1,2.4462242E-2,2.355963E1,1.4751703E-1,1.6951573E-1,3.0225473E-2,6.255363E-2,-7.5852945E-2,2.0429263E-1,1.6187059E-2,2.0464401E-1,5.1629517E-2,-2.75697E-1,-1.8593078E-2],"split_indices":[11,10,7,7,2,0,6,3,0,8,6,0,0,0,2,0,1,0,7,3,0,6,2,0,1,5,0,8,0,0,0,5,0,0,0,0,0,0,0,0,0,0,0],"split_type":[0,0,0,0,0,0,0,0,0,0,0,0,0,0,0,0,0,0,0,0,0,0,0,0,0,0,0,0,0,0,0,0,0,0,0,0,0,0,0,0,0,0,0],"sum_hessian":[4.2222553E1,2.4848114E1,1.737444E1,1.0124497E1,1.4723617E1,3.5101411E0,1.3864298E1,8.494415E0,1.6300817E0,7.816228E0,6.907389E0,1.670234E0,1.8399072E0,8.590954E0,5.273344E0,1.1962214E0,7.2981944E0,1.0052186E0,6.811009E0,5.3395624E0,1.5678267E0,6.094647E0,2.4963064E0,3.247482E0,2.025862E0,6.288057E0,1.0101377E0,5.3881865E0,1.4228224E0,4.165539E0,1.1740235E0,4.475944E0,1.618703E0,1.4896611E0,1.0066453E0,1.0214151E0,1.004447E0,5.218465E0,1.0695919E0,2.9270473E0,2.4611394E0,2.7938058E0,1.6821384E0],"tree_param":{"num_deleted":"0","num_feature":"12","num_nodes":"43","size_leaf_vector":"1"}},{"base_weights":[-9.519665E-3,2.9035462E-2,-1.4655437E-1,-9.933461E-3,1.7379028E-1,1.22664206E-1,-1.9024113E-1,-1.653112E-2,1.7312643E-1,1.9444887E-2,-6.079437E-1,-4.5318958E-1,3.86998E-1,-4.764868E-1,3.059756E-1,-8.6692303E-1,-1.87277E-2,-2.5455457E-1,1.9822429E-1,-2.2811595E-2,2.024432E-1,-2.1017422E-1,3.2849345E-2,-3.927593E-2,1.1980881E-1,-3.047706E-1,-7.5083196E-2],"categories":[],"categories_nodes":[],"categories_segments":[],"categories_sizes":[],"default_left":[0,0,0,0,0,0,0,0,0,0,0,0,0,0,0,0,0,0,0,0,0,0,0,0,0,0,0],"id":33,"left_children":[1,3,-1,5,-1,7,9,11,-1,13,15,17,19,21,23,25,-1,-1,-1,-1,-1,-1,-1,-1,-1,-1,-1],"loss_changes":[7.51725E-1,8.1857294E-1,0E0,8.931661E-1,0E0,1.3740826E0,1.3964999E0,3.2565355E0,0E0,1.779159E0,6.967424E-1,4.4618645E0,1.3343153E0,6.8079364E-1,3.7437427E-1,6.96919E-2,0E0,0E0,0E0,0E0,0E0,0E0,0E0,0E0,0E0,0E0,0E0],"parents":[2147483647,0,0,1,1,3,3,5,5,6,6,7,7,9,9,10,10,11,11,12,12,13,13,14,14,15,15],"right_children":[2,4,